tree
version=v3
num_class=1
num_tree_per_iteration=1
label_index=0
max_feature_idx=18
objective=lambdarank
feature_names=StepsContent Degree AvgWeights MethodContent Count FreqIndexTag FreqIndexText ScoreIndexTag ScoreIndexText VisitCountContent Weight LayerCount Reputation Answers AcceptedAnswers Ratio AvgHours StdHours QueryKnowledge
feature_infos=[0:1714] [5.0729206985817633e-07:0.0052998935289246419] [0.50000000000000011:1] none [1:5] [0:1249] [0:1270] [0:105.3983963420275] [0:415.63536487631717] [1:437] [1:5] [1:5] [0:14.091305001712641] [20:2226] [20:1786] [0.69166666666666665:1] [1.5530384444444445:213.3972237280702] [4.4974732298363538:520.24715857776812] [0.25:1]
tree_sizes=12102 12108 12100 12088 12108 12077 12087 12128 12104 12091 12096 12066 12129 12098 12109 12104 12103 12117 12126 12093 12092 12133 12106 12118 12096 12116 12086 12134 12133 12110 12115 12107 12119 12129 12166 12106 12110 12159 12145 12135 12119 12137 12153 12164 12161 12166 12114 12175 12180 12142 12167 12164 12152 12113 12153 12164 12121 12113 12129 12133 12151 12123 12174 12167 12182 12116 12159 12190 12162 12177 12182 12167 12192 12153 12189 12258 12165 12183 12236 12158 12170 12157 12197 12198 12189 12141 12220 12189 12165 12206 12173 12089 12178 12169 12181 12191 12181 12189 12172 12184 12216 12133 12235 12154 12181 12190 12146 12188 12186 12225 12163 12142 12180 12197 12153 12186 12160 12128 12193 12181 12199 12226 12180 12103 12164 12101 12131 12220 12196 12172 12121 12167 12152 12117 12226 12109 12112 12157 12091 12120 12210 12112 12156 12170 12123

Tree=0
num_leaves=110
num_cat=0
split_feature=5 0 0 6 9 7 6 6 12 7 5 14 12 6 12 7 12 6 0 2 7 5 12 1 9 14 12 5 17 6 13 6 12 5 14 6 6 12 12 5 6 2 6 7 18 5 9 5 15 6 2 17 6 7 18 15 0 6 14 12 15 1 0 18 17 7 12 6 18 18 18 8 7 7 6 13 18 4 6 18 12 5 15 9 5 17 14 16 2 7 6 12 14 6 6 12 1 2 5 18 17 6 5 4 9 12 7 18 12
split_gain=124602 9856.46 4273.45 2349.65 1282.65 1067.72 806.678 696.671 644.825 536.063 482.267 400.333 386.175 333.493 286.906 274.936 269.884 246.543 224.975 185.63 235.919 185.255 174.985 163.815 160.826 135.288 127.215 108.09 105.772 105.533 104.244 103.026 102.747 94.8013 93.2408 92.3318 90.8594 88.3335 82.145 78.243 73.9712 73.8462 72.6191 72.5602 71.9347 70.6049 69.5022 68.6513 67.9317 67.835 78.3285 66.7884 94.1438 65.095 64.0207 61.6951 59.3193 58.7916 64.3326 56.9846 56.9568 54.9248 53.554 53.5306 61.2713 53.5251 53.0605 55.7341 52.8926 50.6507 49.8683 63.1798 48.3727 48.2326 47.3755 45.931 45.3462 44.9845 43.8397 43.6864 55.8589 43.5023 48.5086 43.1619 39.2565 39.2508 38.0594 37.722 37.5598 39.5736 37.5539 36.7622 34.8526 34.8135 33.6625 33.66 39.514 32.8156 31.5372 32.2983 45.5309 31.5253 31.2485 41.8837 30.5329 30.2839 30.0705 29.9456 35.6942
threshold=3.5000000000000004 13.500000000000002 12.500000000000002 8.5000000000000018 3.5000000000000004 5.4107529501142286 13.500000000000002 10.500000000000002 11.221408868056129 8.324953970823211 25.500000000000004 665.50000000000011 11.614863559774351 1.5000000000000002 10.721791121111503 6.494341255104338 11.188363679492603 6.5000000000000009 3.5000000000000004 0.66847385793418612 6.3167663659502393 41.500000000000007 11.232164391140236 0.0024607416272879228 5.5000000000000009 694.50000000000011 10.638686755518263 14.500000000000002 68.695185115873116 17.500000000000004 287.00000000000006 20.500000000000004 11.728563676134337 12.500000000000002 681.50000000000011 10.500000000000002 25.500000000000004 10.387070419831099 13.09248649875631 1.5000000000000002 2.5000000000000004 0.73253779486206827 27.500000000000004 5.3480326430016385 0.81725599669148064 15.500000000000002 8.5000000000000018 15.500000000000002 0.87217021276595752 9.5000000000000018 0.78421264522147727 43.480926078095756 28.500000000000004 5.9573249079290873 0.81974597548368056 0.80377896613190736 2.5000000000000004 2.5000000000000004 43.500000000000007 11.232164391140236 0.85931712962962969 0.00017449359496787243 2.5000000000000004 0.9643913778529164 56.616045574535285 5.5907524891984997 11.529914954975911 21.500000000000004 0.78966437833714731 0.9547646886875184 0.9643913778529164 4.3777520424955929 6.3899784728929996 7.6657978519495034 5.5000000000000009 60.500000000000007 0.83726493824413051 1.5000000000000002 15.500000000000002 0.95807857064401569 10.170282188403091 1.5000000000000002 0.87737200143215188 4.5000000000000009 12.500000000000002 178.17125416146305 681.50000000000011 7.5094387391066055 0.78101270035968851 6.5395916023378371 6.5000000000000009 11.680578284067989 43.500000000000007 2.5000000000000004 5.5000000000000009 10.102071694765218 0.00058896388065248655 0.73612069163971383 28.500000000000004 0.94127500246329698 139.81918737364936 2.5000000000000004 1.5000000000000002 1.5000000000000002 2.5000000000000004 10.500550469614064 10.462073834078017 0.97755328261198182 10.066817283903742
decision_type=2 2 2 2 2 2 2 2 2 2 2 2 2 2 2 2 2 2 2 2 2 2 2 2 2 2 2 2 2 2 2 2 2 2 2 2 2 2 2 2 2 2 2 2 2 2 2 2 2 2 2 2 2 2 2 2 2 2 2 2 2 2 2 2 2 2 2 2 2 2 2 2 2 2 2 2 2 2 2 2 2 2 2 2 2 2 2 2 2 2 2 2 2 2 2 2 2 2 2 2 2 2 2 2 2 2 2 2 2
left_child=2 4 7 8 6 17 12 9 15 57 16 19 33 107 39 37 47 24 46 36 68 25 35 54 79 66 75 28 -10 -25 45 32 -20 72 41 63 -9 43 56 106 84 65 86 74 -34 94 -6 53 -37 -24 -51 52 -43 61 78 -32 87 -1 81 -22 -61 -5 -62 64 -15 -18 -8 91 -21 93 71 -26 -2 90 -3 -12 -29 104 85 80 -4 82 -59 -66 -17 -19 -28 -16 89 -60 -30 -68 -56 -45 -14 -55 -97 -63 99 -42 -101 -74 -58 -104 -41 -39 -11 108 -7
right_child=1 3 5 10 18 13 21 11 27 14 26 -13 30 22 38 40 34 23 31 20 59 -23 49 29 70 -27 42 76 73 -31 55 -33 44 -35 -36 48 -38 105 -40 77 98 51 -44 69 -46 -47 -48 -49 -50 50 -52 -53 -54 95 92 -57 102 58 88 60 62 97 -64 -65 83 -67 67 -69 -70 -71 -72 -73 101 -75 -76 -77 -78 -79 -80 -81 -82 -83 -84 -85 -86 -87 -88 -89 -90 -91 -92 -93 -94 -95 -96 96 -98 -99 -100 100 -102 -103 103 -105 -106 -107 -108 -109 -110
leaf_value=-0.087887470282651259 0.006361886392174108 -0.055805162731561227 -0.094443595115729431 -0.070008903489824387 0.095518271075428082 -0.067079481238257854 0.078997470673572392 0.030195816148354815 -0.085308886844702753 -0.039429029986491414 0.054983251337954446 -0.097776223096393514 -0.028041807321553289 -0.058272600241031321 -0.10684409857474277 -0.02834969426965811 -0.0330164220740429 -0.074976192909823741 0.075813973196196247 0.071871122263140963 0.057783521768441967 0.092728403005838997 -0.076816736535507454 -0.070396527100622275 0.038056407329342873 -0.077925275562542515 0.02969384643785546 -0.058578032003160536 -0.079873398078161892 0.041212779067591881 0.065901715761223709 0.090810000240914387 -0.061652711213069915 0.069995351597682109 -0.10684409857474277 0.039476761495549746 0.085879294059437158 -0.10684409857474277 -0.079000180304147974 0.034703844248389508 0.024810469747423708 -0.050957976764120019 0.062137132221948652 -0.028960172579235416 0.042832849044310159 0.05505919066806806 0.10362162578838723 0.055104017737552718 -0.031420392202101251 -0.012511470276559813 -0.080423567797810597 0.013141698402943283 0.028139556794793026 0.045365035201790319 -0.064356167421832838 -0.045524579717131662 -0.063061179090231317 -0.015814169054126585 -0.072102525003232817 0.039443276292811739 0.019863337048737481 -0.021945676142456759 -0.081318041125184828 -0.075738892250951484 -0.026634203181645312 0.034449229195868222 -0.011240180474503394 0.070005443870240242 -0.050935839966955429 -0.073972759081390727 -0.0832963596979934 -0.063194452866092807 0.013446180385969436 -0.0069936147346384729 -0.0051056856620824058 0.08615810709189603 -0.0045389512435387728 -0.0022277163991047573 0.0014469535157645786 -0.10542647899371789 -0.10234082271726738 0.015684684616332101 -0.083126697764328808 0.040162983840099954 0.027198574945698006 0.047248237792326897 -0.082002173748304402 0.007794668315328419 -0.097645970346114885 -0.019448995422072429 0.0076138069351960333 0.048108062344044529 -0.092129606998851199 0.021133460333007489 0.016772861122904461 -0.0065719294295947545 0.052743406962396759 0.030527008819597429 0.065136724374459845 -0.02843460632143292 0.037779031378206152 0.051522391502354423 -0.0047566460348999872 -0.08376651701043919 0.079470032620062803 -0.053619797615285361 0.010892201704642883 -0.10252262256932605 -0.090312424327824561
leaf_weight=377.04556468549708 102.01002877327846 190.44141981835128 3695.9681815313961 26.612584501883248 4313.4507826495828 299.16537449076714 1161.3416411215148 174.06064539427462 530.70605055811757 54.161084271327127 172.60441815372906 81.337003230888513 80.486988835022203 193.66173588830861 8.7537411148659867 154.33048994213459 40.218030206975527 102.98881859773246 635.21897272861679 10.646414913993793 147.96113942700322 2219.910780158476 546.03149927564664 44.415735028596828 36.792467972118175 17.41336378257256 255.50227498229651 76.518227010121336 75.091169486026047 53.065329978562659 15.567126526671926 2041.9243859828857 24.16071450652089 572.9744854409073 24.125635349351796 81.123628343135351 160.96796056284802 45.144697557174368 116.27514395373873 95.139825670034043 490.25541329135012 179.87692164214968 390.65982433030149 53.697429513937095 84.827552093018312 92.735055752156768 10079.19759590429 457.7072273587255 73.531343625320005 117.77693363407161 82.365540843573399 153.9918529290735 56.412600830197334 417.64210962738434 155.75788637966616 159.30103502937709 118.73829878898687 63.460228657524567 189.70720275942585 81.248497314591077 30.748757664186996 50.888926585379522 29.017554269710672 101.49415641689848 360.49987293145387 202.75180053019722 35.018896316236351 593.88911171491782 167.17084733092634 24.057853409118252 43.090701824519783 33.696440050829551 71.539851130903116 80.574456164409639 72.672576084340108 617.07023379988095 105.30615523371671 50.128285038081231 36.443489409197355 6209.0966192556225 8288.4027760199606 40.443821869164822 58.923860112059629 29.896949722970021 47.479013428543112 8.0873052457172871 9.0133080015366414 127.58033521211473 117.24920087686041 51.877248178992886 17.212161747564096 199.37645903562952 749.16981251131801 150.74275823929929 117.91433069857885 88.217691530415323 50.343643002182944 102.57258155303134 44.40831146252458 84.254955314754625 45.721668570127804 468.18433136219392 81.851094288984314 24.995297483590548 80.082187498250278 94.110353696742095 90.552592257517972 261.64287269159104 511.22728447255213
leaf_count=41407 6315 27571 969442 2275 37126 64333 25926 6713 25303 10208 6017 4803 2375 32790 1484 17949 2223 10201 17588 221 8201 20299 30266 9115 2603 1544 7787 1720 4870 3465 682 27348 378 14458 2030 7050 2248 2060 3430 7520 33955 6347 8848 6090 1624 1296 37306 19646 11835 5902 4656 3319 1913 25475 20716 3802 8878 5839 17975 1922 941 6160 2016 16776 49954 7472 975 8423 18623 4001 4836 4560 5323 3643 7226 16804 4373 8822 3269 915359 614900 2575 8666 2461 2589 435 609 5005 10520 3027 541 3384 94143 10578 2790 5393 3532 6926 1664 7664 2559 19922 3781 2385 2187 9658 11527 39507 44749
internal_value=0 0.0756094 -0.087892 0.0125585 0.091119 -0.095548 0.0696464 -0.0235164 -0.027858 -0.0430654 0.0417743 0.0151531 0.0383402 -0.0637919 -0.0126052 -0.00648727 0.0237224 -0.0998868 0.0985033 0.0266087 0.00483239 0.0820943 -0.0482375 -0.0758928 -0.101394 0.0703322 0.0649051 -0.0639981 -0.0734869 -0.00964027 -0.00300327 0.0846082 0.0675918 0.054201 -0.00376636 -0.0315172 0.0569495 -0.0333149 -0.0399367 0.0227122 0.0130461 0.000160701 0.0475021 -0.0226757 0.0196703 0.0165787 0.101193 0.038857 0.00576842 -0.0670649 -0.0404596 -0.0142334 -0.032074 0.0287571 -0.0820293 -0.0356052 -0.0273866 -0.0718156 -0.0601992 0.0346241 0.0103239 0.000840345 -0.0292619 -0.0399285 -0.0337056 0.0232819 0.0716298 0.0612996 -0.043583 -0.000652069 -0.0380221 -0.0103454 0.040099 -0.0371953 -0.0418019 0.079344 -0.0272805 0.042397 -0.0493959 -0.10179 -0.0999053 -0.0323493 -0.0482229 -0.0215188 -0.015281 -0.0660772 0.0258878 0.00043394 -0.0728366 -0.0607958 -0.0635593 0.0392414 -0.0873492 0.00797607 -0.00140745 0.0377953 0.0149792 0.0131267 0.0216473 0.0185334 -0.00514274 0.0464754 -0.0442002 -0.02324 0.0551635 -0.0708744 -0.00794121 -0.086809 -0.0817357
internal_weight=0 28765.4 24745.5 5678.94 23086.4 22115.4 5907.66 2630.12 2382.73 1746.97 3296.21 883.159 1680.71 2658.42 848.258 1497.32 1851.36 19457 17178.8 801.822 466.793 4226.95 1586.38 1149.93 18307 2007.04 1444.85 885.408 703.584 97.4811 466.005 2786.13 744.207 1214.71 657.377 840.208 335.029 630.867 478.194 370.064 866.45 633.251 655.175 491.612 108.988 291.136 14392.6 1193.98 154.655 746.174 200.142 390.281 236.29 736.278 1052.45 174.868 361.919 898.707 521.662 288.976 141.015 180.074 59.7663 685.553 584.059 242.97 1989.63 828.284 177.817 228.498 113.58 70.4889 641.734 172.878 263.114 789.675 181.824 225.35 147.52 18193.5 11984.4 162.828 122.384 390.397 201.81 111.076 264.516 136.334 358.834 241.584 92.3033 234.395 904.928 204.44 198.401 556.203 138.561 153.462 664.64 620.232 129.977 539.724 225.585 106.846 175.222 139.255 144.714 1072.04 810.393
internal_count=3709921 545674 3164247 306790 238884 2963323 117514 200924 174014 155236 132776 45688 56963 310279 65227 133564 92711 2653044 121370 40885 31924 60551 161690 141344 2511700 40252 40065 40450 34357 12580 10945 46938 19590 46018 23304 120866 8961 67184 24963 40264 66380 21274 17244 55466 2002 6461 74432 69407 18885 40824 10558 11579 8260 49761 128764 4484 21533 90009 48602 13080 4879 15361 2957 101981 85205 9695 38708 12782 18844 20669 11999 7163 31560 9054 34797 22821 6093 18529 13905 2499701 1584342 17080 14505 52415 20538 10636 8396 6489 31522 21002 5411 4359 114859 16668 5165 34400 8925 13086 45842 44178 10223 25245 15044 6166 9707 11718 21735 148589 109082
is_linear=0
shrinkage=0.053422


Tree=1
num_leaves=110
num_cat=0
split_feature=5 0 0 9 6 7 6 0 7 0 9 6 5 18 6 6 6 1 6 5 6 5 5 18 5 9 1 14 7 5 0 18 7 7 0 1 1 7 14 9 5 7 1 15 13 12 17 5 7 1 6 12 6 5 2 1 5 5 16 7 5 16 1 16 1 15 1 17 0 14 2 1 0 5 9 7 15 15 5 12 15 13 5 16 1 6 2 14 6 12 17 12 12 14 5 2 16 2 15 16 6 2 18 5 7 12 12 16 15
split_gain=209309 20720.1 11556.4 7259.69 2852.28 2675.53 2266.01 1875.7 1446.85 1377.22 873.83 779.067 658.556 559.55 549.987 545.227 476.485 468.739 441.33 437.907 418.476 386.853 384.416 380.952 366.772 315.769 310.339 308.529 293.421 292.973 274.568 262.127 256.896 246.436 234.12 233.936 221.773 214.726 209.881 207.149 201.328 198.016 196.942 190.71 216.961 187.953 199.054 180.659 173.841 214.545 169.669 166.088 165.773 163.837 162.995 152.868 152.66 150.482 150.303 147.145 145.709 140.938 140.731 136.507 134.24 132.182 131.524 130.816 129.306 125.269 124.953 124.34 121.542 119.823 119.81 119.38 116.286 116.123 116.051 133.621 113.478 110.843 104.975 103.866 102.519 102.157 100.463 100.214 99.1808 98.9662 97.6315 96.124 95.6499 159.53 125.393 95.1995 121 93.5359 92.065 91.6898 95.5493 91.2697 91.0103 90.9164 89.5636 84.0172 83.8976 100.854 83.1342
threshold=4.5000000000000009 6.5000000000000009 12.500000000000002 6.5000000000000009 34.500000000000007 5.5033772668372514 38.500000000000007 1.5000000000000002 7.5242397111863086 2.5000000000000004 16.500000000000004 2.5000000000000004 266.50000000000006 0.88840243715511968 6.5000000000000009 14.500000000000002 3.5000000000000004 0.000167381211804388 7.5000000000000009 16.500000000000004 5.5000000000000009 249.50000000000003 122.50000000000001 0.84203708753749662 1.5000000000000002 5.5000000000000009 2.1710699164004189e-05 694.50000000000011 10.239465404312424 260.50000000000006 21.500000000000004 0.9355781927938126 5.5907524891984997 6.8577607695766494 1.0000000180025095e-35 0.00081156313854542726 4.6058410466386654e-05 6.7296295097564647 49.500000000000007 2.5000000000000004 2.5000000000000004 5.3480326430016385 0.0024607416272879228 0.91701101928374662 135.50000000000003 10.836260475945453 8.9413036466526297 9.5000000000000018 9.0731403869709784 0.000167381211804388 47.500000000000007 11.154679851507908 2.5000000000000004 7.5000000000000009 0.64307468257558098 3.317162741886671e-05 12.500000000000002 11.500000000000002 23.896965405773418 7.5242397111863086 29.500000000000004 19.392785893771173 0.00081731342662559679 93.797812920751667 7.4229607098098623e-05 0.89808503732554379 0.002027403479086276 6.4404650627021764 1.0000000180025095e-35 137.50000000000003 0.66847385793418612 4.9369564203499148e-05 1.5000000000000002 16.500000000000004 17.500000000000004 8.324953970823211 0.92031746031746042 0.84542217971199329 135.50000000000003 11.123400874765858 0.83407738095238104 67.500000000000014 26.500000000000004 24.814369724249023 0.0014140737163632771 14.500000000000002 0.8962975101326498 69.500000000000014 5.5000000000000009 13.770098432696827 65.84509038523781 10.262746200186735 11.680578284067989 128.50000000000003 40.500000000000007 0.66908665327753181 67.823874893954269 0.72995887357584788 0.85931712962962969 73.002728963920831 17.500000000000004 0.76350785931336917 0.95839515331355107 73.500000000000014 10.086186843876535 13.171626693630261 11.899163518823533 12.356993768921731 0.85537128343044977
decision_type=2 2 2 2 2 2 2 2 2 2 2 2 2 2 2 2 2 2 2 2 2 2 2 2 2 2 2 2 2 2 2 2 2 2 2 2 2 2 2 2 2 2 2 2 2 2 2 2 2 2 2 2 2 2 2 2 2 2 2 2 2 2 2 2 2 2 2 2 2 2 2 2 2 2 2 2 2 2 2 2 2 2 2 2 2 2 2 2 2 2 2 2 2 2 2 2 2 2 2 2 2 2 2 2 2 2 2 2 2
left_child=2 3 9 6 8 14 18 10 20 16 29 75 56 15 25 33 28 30 48 39 38 47 27 42 89 102 -20 41 -1 32 58 40 -5 -11 55 37 -34 82 -3 -19 54 51 -16 92 60 -17 -47 -9 53 -50 95 84 -35 63 66 -18 65 -39 -10 -49 81 -41 90 -2 -54 -8 -13 101 -12 -26 -48 -27 -30 108 91 -7 -52 -72 79 -69 -24 -45 -28 -64 -6 -21 -82 -33 -63 104 -37 -61 93 -22 -94 -36 -97 -38 -56 100 -42 -58 -4 -46 -15 -14 107 -75 -43
right_child=1 4 5 7 22 11 12 21 17 13 68 31 105 24 23 45 34 19 26 85 43 -23 80 -25 69 71 35 -29 72 -31 -32 87 36 52 50 62 97 57 -40 61 99 73 -44 44 103 46 70 59 49 -51 76 -53 64 -55 98 -57 67 -59 -60 74 -62 88 83 -65 -66 -67 -68 78 -70 -71 77 -73 -74 106 -76 -77 -78 -79 -80 -81 86 -83 -84 -85 -86 -87 -88 -89 -90 -91 -92 -93 94 -95 -96 96 -98 -99 -100 -101 -102 -103 -104 -105 -106 -107 -108 -109 -110
leaf_value=-0.072094125312064383 -0.090743775036076446 -0.031811516858247957 -0.091515079452681003 -0.011087043716086993 -0.049914761233808794 -0.08087451361795242 0.038374716990932187 0.016599803086070238 -0.0026253404407092767 -0.060291547381937725 0.088626398318860947 -0.035501746856478417 0.070872813608861704 -0.08000696958257679 -0.052246107940402402 -0.026254960498302261 0.076698670960188189 -0.022910542333853003 0.069964974063831772 -0.00059957957813399168 -0.0091264085042160221 0.076859132778003963 0.013195320175546513 -0.080889611203975947 -0.024261444115830876 -0.071134560797475585 -0.0070884964815905917 -0.066408141813560959 0.0154129023628016 0.083495351459027076 0.0051585939175485323 -0.051484485216726314 0.081209355363810395 -0.04955152612479187 0.016969161552162135 0.051313665910014697 0.073130591911652512 0.020119591885322505 -0.068239121467421435 -0.057764139940723089 -0.037139138647420529 0.029990778341854499 0.011136753402152229 -0.018846036503414945 -0.077979479270029572 -0.10260040921374466 0.048633588131830788 0.012449995429021428 0.038813247872072423 0.00050597696183404405 0.061179276378232998 0.033659248919521642 0.020405172557190619 -0.0017275653821024477 -0.042274116673067998 0.027188690240244142 0.045871012100210037 0.0385308146676204 0.039432340592236798 0.040860466897997057 0.01451644258087155 -0.022501097835269952 0.0046795850438527088 0.026771837837799576 -0.024099541278124824 -0.016276599283437547 0.026653085079947219 0.043720953499554537 0.078170416384609226 -0.070141101080575474 0.036176973727383543 -0.0059325534899515708 -0.038408295395794961 0.01469184826279833 0.062746126642524297 -0.058940648742928314 -0.043660449555367319 -0.021176604996550458 0.063629594379751325 0.057136256123757334 0.064802933283474556 -0.060489986082791526 0.023524861965843746 0.025102406861178012 0.01616343855243892 0.015821457099999981 0.017951797751625691 -0.088152126403785599 0.012967619339645433 0.058152986060152137 -0.063251834453830369 0.054400905455860314 -0.0055364935772939522 -0.045184617751484447 0.047468142263290831 -0.029588658532019165 0.016055835715343858 0.061044588437534381 -0.071303185613702691 0.0031912301173513255 0.0025467394374109114 0.0031459686459084286 -0.096585935230715486 0.018028316954384272 -0.044439814172127043 0.089782650820915758 0.050798658072128362 0.035688113729139721 -0.0088094073124606702
leaf_weight=282.51522882829886 131.01106667390559 1146.5358832438942 26170.913062353327 121.52881268598139 204.90940897259861 2781.974310884194 523.20827581081539 474.96610464761034 278.79510406614281 846.6174532645382 15377.366989795119 495.96638975420501 1700.8464564089663 1216.6140678458614 623.93058856466087 333.20274579501711 250.55581834539771 2613.3053786314558 531.03056100383401 1671.7760807411978 2498.4852889636531 1645.2775608301163 160.88687874539755 2242.3028199474793 950.39658061810769 183.87462003051769 488.16673783329315 99.256453899201006 326.08612169791013 3541.2491684854031 1690.5788799053989 483.71348339342512 2521.8542958050966 464.71503122767899 465.91134690283798 26.905276524834335 2323.9550736933015 1529.8763256203383 744.49897365912329 105.81367404724006 719.84824845049297 301.52319322573021 180.3452185979113 582.99364938959479 320.38661108305678 35.420745164505206 384.9256874169223 280.81887724157423 616.57198522891849 1290.7045892805327 214.91454013460316 207.6255048494786 280.45080802112352 371.47139264899306 618.92366922541987 614.44468818046153 310.54619300644845 7371.950154974591 1862.9143126677955 2863.6497636251152 250.18636856437661 278.91635167156346 1076.7849250123836 35.951432552887127 623.33193802356254 166.49379925569519 120.83393258531578 4795.5139570022002 4324.7306857225485 206.79742946452461 192.11073010647669 152.86084406299051 189.23866656119935 820.64384678890929 2106.1888999924995 950.00907826353796 35.12899516930338 211.84917036839761 2110.5982484011911 3796.3394838562235 1380.2491861018352 265.47073911241023 926.15821969392709 2090.3543540107785 99.569155928213149 3060.6240277453326 144.27190274326131 379.69047869287897 1163.8905649402877 16.328690298134461 100.61746426997706 3133.5394704584032 485.23808953206753 407.24193426547572 172.71340669295751 482.22358284529764 252.55575839674566 8554.4064620635472 628.32870687451214 389.60790021339199 227.97211788629647 263.99705793941393 16450.440626768162 30.860934033989906 242.29846117272973 1106.9752181954682 755.77727668522857 3194.2063734296244 330.17153740231879
leaf_count=10881 2453 33280 1607705 209 1967 148548 1934 1968 2759 35069 10301 16739 2185 56757 25718 5346 536 48725 1006 19370 31514 1793 897 115969 17874 7369 3069 2182 4663 2806 21503 18166 2000 15817 5567 92 2667 8745 31694 2620 21322 2154 3095 9787 6844 1245 1622 622 2876 11553 920 1114 3510 2892 22522 5217 859 22912 10484 8101 1611 6179 6652 287 14246 1109 1789 10499 4085 5877 1647 4779 4642 3806 3441 46555 625 3752 2869 7510 3001 6369 2561 9219 843 22555 798 18551 14510 214 846 6368 9225 6414 948 10204 3093 12221 28040 7394 4117 727 910102 226 7747 773 2854 14110 3817
internal_value=0 0.0458293 -0.0771797 0.0597565 0.00575942 -0.0866052 0.0398283 0.0729784 -0.00504846 -0.0215676 0.0786667 -0.0576672 0.0550437 -0.0365172 -0.0915096 -0.0221101 0.00726512 0.005634 0.0262759 -0.00109579 -0.0247384 0.0530697 0.0333175 -0.0695759 -0.0549752 -0.0930652 0.0298997 0.026998 -0.0283391 0.0698166 0.0212531 -0.0414866 0.0662343 -0.0376371 0.0195318 0.0283365 0.0669355 0.0322945 -0.046153 -0.0137358 -0.0344416 0.0285655 -0.0380336 -0.0166612 -0.032996 0.00760396 0.0212905 0.0486517 0.00532219 0.0128897 0.00641561 -0.00318315 -0.023622 -0.021484 -0.0457891 0.0415297 0.0495804 0.0353666 0.0339575 0.0504674 -0.0213113 0.00174654 0.0159434 -0.0654396 -0.0102894 0.0251819 -0.0233253 0.0510726 0.0863312 -0.0324604 0.0268531 -0.0415362 -0.00435143 0.0315751 0.0517849 -0.0752911 0.0464502 0.00609897 0.0524057 0.0496486 0.0558661 -0.0318758 0.0129584 0.0181589 -0.0283062 0.0100205 0.0603692 -0.0676094 0.00611098 -0.0726361 -0.0390803 0.0479354 -0.0100153 -0.01418 0.00837732 -0.00192159 -0.0138999 0.0636265 -0.0568981 -0.0186258 -0.0275938 0.0262393 -0.0934723 -0.0695441 -0.0740999 0.078328 0.0344702 0.0313964 0.00971086
internal_weight=0 105962 62920.2 78631.6 27330.3 53801.5 31362.1 47269.5 19631.2 9118.63 36765.1 7796.87 14774.5 6005.06 46004.7 3372.62 3113.57 12726.6 16587.6 8894.33 6904.61 10504.4 7699.09 3046.58 2632.44 42958.1 14141.8 6013.68 797.84 17063 3832.29 4064.88 13521.7 2215.12 2315.73 13610.8 13400.2 10316.2 1891.03 4161.93 3201.48 5914.43 804.276 5013.58 1449.9 1157.51 824.306 8859.16 2445.71 1907.28 1450.73 512.104 1368.5 538.434 1864.05 865.001 11966.7 8901.83 2141.71 8384.2 1098.65 1548.62 3294.66 166.962 903.783 689.702 616.8 11277 19702.1 1157.19 788.886 336.735 515.325 5402.32 8103.38 3731.98 250.044 403.96 10702.5 8591.85 1685.41 848.464 1414.32 3167.14 304.479 4732.4 1524.52 863.404 1442.81 1475.24 127.523 5997.19 3563.68 2905.73 657.951 1200.69 734.779 10878.4 1247.25 1337.43 947.82 574.543 42621.4 351.248 1458.91 2807.82 4770.63 4014.85 631.695
internal_count=3709921 484370 3225551 160210 324160 3008480 103628 56582 286617 217071 34289 333743 28465 170723 2674737 82254 46348 148705 75163 113959 137912 22293 37543 144782 88469 2529955 55102 32847 20186 19903 34746 138640 17097 68642 26162 54096 16888 37287 64974 72034 101923 30665 28813 72938 24837 13612 8266 20500 20061 14429 20409 3924 33573 5632 69090 5753 25507 31657 13243 18532 17767 23309 16809 2740 17756 3043 18528 22464 14386 23751 7021 12148 9305 26741 17910 195103 1545 5399 20878 18009 4696 16156 5630 15871 2810 41925 3799 36717 20689 64718 938 14469 48101 37928 10173 18864 13297 14888 50562 32833 25439 1586 2517807 7070 64504 2958 20770 17916 5971
is_linear=0
shrinkage=0.053422


Tree=2
num_leaves=110
num_cat=0
split_feature=5 0 0 9 6 7 5 5 6 9 5 6 7 6 9 15 6 12 5 7 14 7 7 9 1 6 1 12 2 0 6 0 5 16 7 1 6 0 6 2 1 18 15 14 0 18 1 7 18 2 6 7 6 16 5 1 0 14 5 6 5 16 5 15 17 2 7 13 17 7 6 16 13 6 1 7 12 14 7 4 17 12 7 12 14 7 7 2 18 18 18 0 4 12 16 16 18 2 17 12 12 1 5 2 18 18 1 7 1
split_gain=185346 18017.3 9884.37 6521.56 2414.26 2081.46 1589.87 1221.26 855.498 714.209 607.753 605.66 588.511 555.924 545.672 462.622 459.082 347.313 322.237 299.247 265.546 257.544 257.161 241.57 226.377 219.539 209.209 200.53 197.977 195.711 190.226 184.005 174.814 180.08 171.94 168.246 161.729 153.644 143.782 140.996 135.058 130.568 129.481 161.56 128.94 126.367 126.288 125.462 125.353 121.32 118.495 117.295 116.563 116.138 115.875 111.324 111.018 108.961 108.732 103.126 101.421 112.922 99.0665 97.3827 97.1113 96.899 96.863 94.687 196.23 116.531 94.3391 105.781 94.1444 93.7417 93.0694 92.9359 91.7981 89.8139 88.429 87.6859 87.4831 105.097 85.3918 84.4408 83.3684 89.5469 100.289 81.6589 92.2047 79.4761 78.4847 78.2442 77.0985 74.9036 73.1319 73.113 72.7109 129.271 71.6424 81.1681 71.2204 69.961 69.491 68.6935 68.4337 67.7541 82.1463 66.7332 66.5555
threshold=4.5000000000000009 8.5000000000000018 12.500000000000002 7.5000000000000009 11.500000000000002 6.0801793022365151 89.500000000000014 1.5000000000000002 13.500000000000002 20.500000000000004 45.500000000000007 10.500000000000002 6.0198161084263173 1.5000000000000002 3.5000000000000004 0.89461612747465002 3.5000000000000004 11.814544761623649 388.00000000000006 5.3480326430016385 694.50000000000011 17.316746702512365 3.7343644240300704 4.5000000000000009 4.6058410466386654e-05 18.500000000000004 0.0025621909864635005 10.102071694765218 0.85688505923767011 1.5000000000000002 8.5000000000000018 2.5000000000000004 12.500000000000002 11.393192473733182 10.086186843876535 0.0014234527892344475 58.500000000000007 1.5000000000000002 2.5000000000000004 0.81427864346584355 4.6058410466386654e-05 0.82528511468181642 0.88493064312736458 68.500000000000014 1.5000000000000002 0.9302677942212827 0.0010821702059859877 4.6699604833499793 0.81840463458110524 0.87582263861953191 1.5000000000000002 8.182728006569798 28.500000000000004 31.583971912894203 1.5000000000000002 0.00017320791376507086 1.5000000000000002 694.50000000000011 9.5000000000000018 7.5000000000000009 22.500000000000004 73.874665206424723 235.50000000000003 0.84660633484162906 67.532436261069847 0.8265334559325338 8.6609678324923518 819.50000000000011 8.9413036466526297 9.9625694617992853 24.500000000000004 77.245754464285724 1183.0000000000002 9.5000000000000018 0.00017100014625098854 4.2310459011374535 7.1857570576788374 80.500000000000014 8.5192146257247927 1.5000000000000002 67.345870422034096 11.646807751995313 11.377590649949607 13.104673041931049 140.50000000000003 15.870291495693367 7.0014341580987525 0.8997237004196853 0.82025060839848818 0.80311089619600262 0.86371186952582313 17.500000000000004 1.5000000000000002 8.3469969640939059 103.50487382899307 81.359192134851028 0.82768199233716488 0.72163506680303791 77.951326951812177 9.4044663561727848 12.006435859088896 0.00043538853659274337 32.500000000000007 0.62788922346160614 0.95716084922634048 0.94127500246329698 7.4229607098098623e-05 4.8076029160284302 7.0841504334778605e-05
decision_type=2 2 2 2 2 2 2 2 2 2 2 2 2 2 2 2 2 2 2 2 2 2 2 2 2 2 2 2 2 2 2 2 2 2 2 2 2 2 2 2 2 2 2 2 2 2 2 2 2 2 2 2 2 2 2 2 2 2 2 2 2 2 2 2 2 2 2 2 2 2 2 2 2 2 2 2 2 2 2 2 2 2 2 2 2 2 2 2 2 2 2 2 2 2 2 2 2 2 2 2 2 2 2 2 2 2 2 2 2
left_child=2 3 7 6 12 16 11 8 34 17 19 29 39 -7 25 28 23 24 46 35 21 27 41 -4 51 37 98 53 52 40 54 79 33 -14 59 95 49 -9 78 58 -2 73 80 -44 65 -27 62 -29 -22 -12 -35 -5 100 -13 -15 -41 -11 70 -3 63 61 -23 90 -1 102 108 -17 -48 69 -69 71 104 -19 -18 -66 -57 -40 105 -31 82 81 -32 -16 -61 85 86 -39 -51 -89 -46 -8 93 103 -52 -78 -6 -54 -98 -24 -100 -10 -67 -34 -36 -21 106 -56 -42 -26
right_child=1 4 5 9 10 13 18 14 15 56 36 20 32 30 31 66 22 72 -20 57 48 60 26 -25 44 45 -28 47 -30 38 42 -33 64 50 92 -37 -38 84 76 55 107 -43 43 -45 89 -47 67 -49 -50 87 91 -53 96 -55 77 75 -58 -59 -60 83 -62 -63 -64 -65 74 101 -68 68 -70 -71 -72 -73 -74 -75 -76 -77 94 -79 -80 -81 -82 -83 -84 -85 -86 -87 -88 88 -90 -91 -92 -93 -94 -95 -96 -97 97 -99 99 -101 -102 -103 -104 -105 -106 -107 -108 -109 -110
leaf_value=-0.049847142952057721 0.066377239076242586 -0.064606559834284497 -0.088342408122264085 0.026995964244005018 -0.047522720600448758 -0.07521586029304686 0.066092751224611904 0.0037810862488875112 -0.022045024716797264 0.082503969334226768 0.027991758535294932 0.018254539488673845 -0.067876285519612625 -0.063224564511898215 0.024645814655090782 -0.07061267692298917 -0.07147496369838259 0.072328616477542934 0.079545176306618851 0.0044986046661176895 0.022573410098175123 0.030082944453457758 -0.071114677433979243 -0.049055114185745048 0.049794533684938691 0.021000391156122428 -0.00081096965578463279 0.00041161741910591488 -0.09262095704069663 -0.077251220363197232 -0.04213449736285628 0.0057126091133860848 -0.021250025644692409 -0.046625892716735527 -0.019492732198459213 0.0047852685879772533 0.043808364369111848 -0.049733328715347011 -0.043737705873991548 -0.092985654140761334 -0.043792562004723548 -0.081863754849396203 -0.011418265392340039 -0.071436055604212192 -0.010828718898558154 -0.051206245864016675 0.047871914554066287 0.040896918394350293 -0.083668211362221287 -0.090748847382181419 -0.035867220295782362 0.076485579421539801 0.058421559985136574 0.033162668198266271 0.0049042128846973967 -0.059376984246373513 0.068272341183546331 -0.085746872946783098 -0.037374956274343472 -0.049075331744527113 0.050727138842518123 0.055743930595571402 0.070031548803612245 -0.077753512105583261 0.02917035918075252 0.048004763147068481 0.0018161032250759838 -0.0096054548974534026 -0.077216030029252342 0.061078564333954831 0.018986010015737177 0.020997614310163761 0.085655680249344612 -0.033284003731691096 -0.0012592894296232591 -0.0049667012203027825 0.0099314218975665881 -0.062031721283196894 -0.01047940582183534 0.024037652625617245 0.014585162316204011 0.0062915826334236594 0.074903059060583296 0.023877639552655889 -0.054799197820002574 -0.057818138408222072 -0.0099204241064930979 -0.078538575901205776 0.012005665039242603 0.052292980035775392 0.05054706720974024 -0.01784749696192334 0.032211879418621213 0.012341144661556527 0.034320942527316121 0.0311877919292304 0.036630885881873798 -0.068932249266677362 -0.067746455923584734 -0.020781774189105554 0.023331941180188668 0.063998733672159164 0.010336180853175048 -0.053448386826730365 -0.020357506868361436 -0.058668612574530488 -0.03459118090741569 0.026571677277950092 0.068942391688381843
leaf_weight=505.34426549472846 264.06428708136082 913.25251177814789 39579.260652046534 142.65547646768391 470.05700931022875 2082.6412470541545 1223.3193929879926 525.56539616710506 198.89443907071836 14626.490010485053 2106.2661933326162 2642.4886431894265 209.2876045666635 1050.2404017326189 137.40223728865385 273.66612141230144 533.36800038185902 5969.9318037559278 1820.2779763760045 2940.7331691641593 55.183368058176711 1728.1224887212738 662.6524950027233 451.76033333980013 578.26874680258334 628.51245007198304 200.90505725890398 225.12920038215816 45.248337019584142 73.031766519648954 328.46604222606402 602.9532534367172 764.34364658000413 337.76860857440624 307.414818308549 390.49082990596071 1920.5433307322673 226.12349652778357 81.120203004684299 58.199151502922177 39.723154940176755 3925.4493848794373 226.8177942277398 293.80711812956724 57.688191360794008 77.724003665731288 1179.5620029107668 7366.4121524058282 74.4629092363175 29.583953910972923 112.31032667635009 3260.5856353780255 264.60322420718148 3423.2839185092598 182.3400570966769 110.98684193927329 1751.6589844836853 32.989148001885042 772.35094026802108 390.30976488417946 4915.5895563731901 682.77802549675107 1480.1693556490354 1214.6959612288047 431.89395335875452 1729.7047030301765 65.262542172567919 108.67939159367234 54.357106178998947 171.77048872830346 2928.9016904808814 1094.1988279757788 2026.1695125829428 279.56281887902878 854.14305463735946 464.72587166028097 2104.8570627354784 423.08083351003006 251.64694360364228 335.27580077783205 257.52595926029608 209.46143370657228 324.00253417436033 51.222458926029503 301.69774416193832 187.56458277045749 896.32972995145246 36.105410080868751 289.15790459048003 4315.8586815004237 3824.3392089367844 2216.5156352067133 47.335472158156335 508.15747133037075 421.05268561583944 36.279263032600284 174.68486609717365 40.848405544180423 198.84816789929755 222.57974502327852 195.97917120018974 1422.3473117430694 268.64752690400928 380.47626506001689 354.18811180663761 249.24554905248806 855.10425440117251 1215.6074623323511 4976.1503053158522
leaf_count=21122 552 34509 2407410 268 11082 117357 2052 7323 4399 10704 12601 10372 7908 49990 812 10906 27743 7127 1672 36793 389 10952 33850 19579 889 5934 3682 1298 2095 1602 9540 10105 14853 11002 8206 4750 7495 6992 1252 2165 466 218884 5906 13725 416 2142 2834 23272 1517 434 2024 3411 1026 12186 4067 4408 3160 1814 21010 15012 16554 2562 1705 62666 3479 3068 1150 402 235 374 25345 10470 1415 9817 11876 10118 19334 20688 3147 3796 4043 5359 560 851 9600 7002 17233 513 2148 13485 6680 47215 912 6555 2638 389 1176 1439 8793 7548 1625 2170 3135 12987 5858 11254 29245 7863 6398
internal_value=0 0.0458185 -0.073277 0.057802 0.00155377 -0.0819295 0.0410276 -0.0194888 -0.0400721 0.0723468 0.0161115 0.0339984 -0.0213637 -0.0527617 0.000671632 -0.0033094 -0.0858301 0.0665695 0.0592481 0.00756992 0.0377738 0.0382448 -0.0720799 -0.087899 0.0621375 -0.012769 -0.0508831 0.03391 0.0163417 0.0160898 -0.0412889 0.0279779 -0.0121362 -0.0198788 -0.0560521 -0.021563 0.0321899 -0.0213019 0.00802543 -0.0440517 0.0316501 -0.0778282 -0.0245761 -0.0452884 0.0589441 0.0130538 0.054654 0.0396963 -0.0384469 0.0231234 -0.0167147 0.0744111 0.0219764 0.0266681 -0.0492582 -0.022574 0.0809819 0.0111242 -0.0521289 -0.0636427 0.0463253 0.0373503 0.0578784 -0.0695547 -0.000837698 0.0627033 -0.0566661 0.0407551 0.0156817 0.0336872 0.0115608 0.00660597 0.0757056 -0.0583413 0.00896 -0.015456 0.0122005 -0.0406792 -0.0254988 0.044829 -0.0110199 -0.0232781 0.0599369 -0.040612 -0.0294812 -0.0236504 -0.0179409 -0.00577388 0.00195493 0.0514604 0.0543146 -0.0131535 -0.0337358 0.00361499 0.013997 -0.0418831 0.0396588 0.0166243 -0.0601627 -0.0429418 0.000475954 0.055222 -0.0130355 -0.0382738 0.00182669 -0.0336582 -0.0276495 0.0243451 0.0669489
internal_weight=0 96936.6 60612.3 76284.5 20652.1 52213.1 35427 8399.14 4155.99 40857.5 12629.5 25564.6 8022.58 6158.73 4243.15 1259.19 46054.4 24479.4 9862.47 8247.84 21113.5 20983.8 6023.37 40031 16483.3 2843.52 1284.99 13657.3 920.258 4451.1 4076.09 1399.63 5703.07 3384.04 2896.8 896.827 4381.66 2137.28 2931.71 2319.52 1519.39 4738.38 1316.08 520.625 13080 706.236 8042.2 7591.54 129.646 2461.11 3174.75 3403.24 875.01 6065.77 2760.01 633.912 16378.1 7351.01 1685.6 2161.57 7326.49 2410.9 6527.83 1720.04 2319.03 8706.47 338.929 1514.37 334.807 280.45 7318.02 4389.12 7996.1 812.931 1286.04 575.713 2607.03 1709.77 324.679 796.681 795.453 537.927 461.405 441.532 1611.72 1310.02 1122.45 354.847 325.263 4373.55 5047.66 2836.98 735.227 620.468 2525.91 506.336 480.136 215.533 1084.08 421.428 394.874 3152.05 1032.99 687.891 3294.92 1286.69 1037.44 1255.33 5554.42
internal_count=3709921 484370 3225551 184421 299949 3008480 131910 217071 145572 52511 119692 115956 180257 271174 71499 23816 2737306 38647 15954 96501 79102 77196 310317 2426989 30105 56226 53873 47128 11760 36854 153817 15273 108047 74704 121756 16221 23191 48150 27973 72210 8881 256444 38573 19631 26426 8076 14282 24570 1906 15696 66796 3679 9665 22558 115244 16691 13864 80280 55519 99651 30068 13514 10437 83788 33343 12525 12056 3845 1011 776 78466 53121 8542 37560 15355 14526 23224 65254 4749 5168 18942 14899 1372 15863 40827 31227 24225 3095 2661 13901 8732 55794 22105 8579 21972 11471 3641 2615 50191 16341 6024 5238 17988 21193 42651 44566 33312 8329 7287
is_linear=0
shrinkage=0.053422


Tree=3
num_leaves=110
num_cat=0
split_feature=5 0 0 6 9 7 0 5 6 6 6 6 0 9 9 9 2 6 6 18 18 0 5 9 5 5 7 5 13 1 7 18 5 5 5 1 13 6 1 7 7 13 5 7 0 5 2 5 1 6 15 14 6 0 0 1 14 8 12 18 14 16 5 7 2 1 16 0 7 9 6 2 12 6 1 17 7 0 16 6 5 16 5 7 0 2 15 7 7 12 14 12 15 14 8 17 6 5 7 12 5 6 16 16 12 14 5 12 12
split_gain=157702 14705.8 8368.52 4000.04 3332.97 1724.04 1056.27 1022.69 985.251 950.193 726.468 559.16 457.27 443.583 439.486 424.021 404.652 397.998 339.154 244.835 237.835 230.623 223.21 223.134 196.767 195.651 191.34 182.992 172.91 169.857 166.54 164.777 163.704 158.758 149.734 144.747 138.921 134.732 127.772 123.965 123.898 120.068 117.55 116.553 114.304 113.841 107.729 99.9008 99.8821 98.2469 94.4604 94.3155 92.3757 89.8796 89.4326 88.8541 88.5407 88.0932 86.0924 85.5691 82.5359 81.9533 107.012 172.799 81.0806 80.6746 79.4681 78.4253 76.2402 75.3333 85.123 79.6021 75.1837 74.9686 74.8894 74.6766 74.5868 73.115 70.9701 90.5749 69.4008 67.9564 77.8921 67.8609 67.1472 102.826 66.8685 66.0336 65.2661 64.5678 64.4503 61.7761 61.1464 61.0288 60.9775 60.703 60.2981 59.7065 59.3572 58.8239 58.4072 58.2393 58.4825 57.813 57.7562 57.7439 57.5814 56.1224 55.9954
threshold=4.5000000000000009 3.5000000000000004 12.500000000000002 14.500000000000002 7.5000000000000009 5.5033772668372514 21.500000000000004 1.5000000000000002 56.500000000000007 59.500000000000007 10.500000000000002 2.5000000000000004 12.500000000000002 16.500000000000004 2.5000000000000004 2.5000000000000004 0.66744516400971066 5.5000000000000009 6.5000000000000009 0.84203708753749662 0.82768199233716488 1.5000000000000002 274.50000000000006 4.5000000000000009 284.50000000000006 14.500000000000002 5.7080134907882085 18.500000000000004 631.50000000000011 0.0001359363123387137 10.239465404312424 0.9355781927938126 8.5000000000000018 371.50000000000006 2.5000000000000004 4.6058410466386654e-05 854.50000000000011 39.500000000000007 0.0024607416272879228 5.8559760038976707 5.3480326430016385 93.500000000000014 12.500000000000002 4.5112153899054652 1.0000000180025095e-35 13.500000000000002 0.64307468257558098 25.500000000000004 4.6058410466386654e-05 35.500000000000007 0.86512474012474028 694.50000000000011 14.500000000000002 14.500000000000002 1.5000000000000002 0.0017544744580731591 123.00000000000001 2.3207623361572485 11.899163518823533 0.90821007302003387 123.00000000000001 68.92699702462123 36.500000000000007 6.963854131511062 0.78483968716032793 3.317162741886671e-05 21.547594352245909 11.500000000000002 8.8201011604063968 2.5000000000000004 1.5000000000000002 0.90226424677062866 10.998436816158202 23.500000000000004 0.0011796077467697175 232.32342244915665 8.324953970823211 1.5000000000000002 83.007821576388906 15.500000000000002 252.50000000000003 83.817831494047638 36.500000000000007 6.1429448624824063 1.5000000000000002 0.74816943641268641 0.86430215526260734 13.700564329331998 5.9106850055893769 8.8932284494207767 41.500000000000007 12.428421697661642 0.86512474012474028 22.500000000000004 40.420755927403683 8.0760714796232609 1.5000000000000002 2.5000000000000004 14.485190007304768 8.3030024750499845 249.50000000000003 3.5000000000000004 81.359192134851028 39.121475784511794 11.614863559774351 69.500000000000014 495.00000000000006 12.437761466427634 13.396450656213071
decision_type=2 2 2 2 2 2 2 2 2 2 2 2 2 2 2 2 2 2 2 2 2 2 2 2 2 2 2 2 2 2 2 2 2 2 2 2 2 2 2 2 2 2 2 2 2 2 2 2 2 2 2 2 2 2 2 2 2 2 2 2 2 2 2 2 2 2 2 2 2 2 2 2 2 2 2 2 2 2 2 2 2 2 2 2 2 2 2 2 2 2 2 2 2 2 2 2 2 2 2 2 2 2 2 2 2 2 2 2 2
left_child=2 4 7 6 8 18 29 10 14 12 30 76 32 24 25 37 28 26 23 38 72 65 80 96 48 94 90 40 49 39 50 34 60 36 46 -16 53 57 108 -3 -14 43 -43 -19 -15 69 52 66 -6 104 68 73 -13 -11 -32 64 58 -9 -42 -58 -5 62 63 -34 -49 -17 -37 -38 101 70 -31 -71 -18 -29 -28 77 -7 -50 79 87 100 82 -47 -59 85 -22 -63 -23 -68 -77 -8 -62 -48 -25 -2 -85 -4 98 -80 -46 -10 -1 -103 -41 -12 -33 -53 -97 -20
right_child=1 3 5 9 13 11 17 15 22 33 16 31 27 44 35 21 20 41 19 -21 84 78 -24 93 -26 -27 74 51 -30 45 54 105 61 -35 -36 47 67 -39 -40 103 56 42 -44 -45 99 81 92 55 75 -51 -52 106 -54 -55 -56 -57 59 83 -60 -61 91 86 -64 -65 -66 -67 88 -69 -70 71 -72 -73 -74 -75 -76 89 -78 -79 97 -81 -82 -83 -84 95 -86 -87 -88 -89 -90 -91 -92 -93 -94 -95 -96 107 -98 -99 -100 -101 -102 102 -104 -105 -106 -107 -108 -109 -110
leaf_value=-0.071575641915358715 -0.0034496498746246045 -0.046756091285818417 -0.084359383960397757 0.018006656482151346 0.069374192462272236 -0.073386549646565769 -0.04309577261711376 -0.073282928441391892 0.05205527757583759 0.046941161165490956 -0.0085223164662890649 -0.034935475934673513 -0.035760876212650158 0.077062368323071298 0.060863611600510931 0.062163824272278456 -0.058759816323731194 -0.045646395331928886 -0.053981656260977832 -0.073237150897158404 0.018986818075324079 -0.0087550939749679209 0.071207082725174731 0.0050627902564874105 0.074314524540308666 0.027286026125960851 -0.024754448691715246 0.0073427053794639765 -0.095602965583491489 -0.076449115202932225 0.0026979440183445007 -0.048038183528062744 -0.01029517412745596 0.068761772718822486 -0.018134025688949597 0.014357005838510543 0.019147543830734626 0.027539486288201975 0.0027665672504202537 0.0094044239878711394 0.0045763398805898411 -0.049141711391376436 -0.013123109862006092 -0.0037284404237681043 0.042253835601352589 0.00062931479212971085 -0.041215614318264843 0.051900413919373285 0.060351991441149798 0.057698941035259216 -0.072840328145355598 -0.090289010248287629 0.018301616201768848 0.029326213186861242 -0.043334374024871794 0.019755430314984949 -0.0067701853934860326 -0.043568692059458347 0.051004172888577191 -0.066161272152060996 -0.038355666336109949 0.012869408265150633 0.034651020731097777 0.026274632592097665 0.037479531945221432 0.027225961984236897 -0.013526791989962315 -0.053163060046651611 -0.010828885872375385 0.012046874062584189 -0.012059488100162623 -0.044347999687750224 0.02892950745996295 0.022278028240983756 -0.060805048040973343 -0.03600505392761387 -0.055318280079849166 0.049772243902134999 0.013957122668268599 0.011624016070898203 0.014655146005367608 0.034894617291589526 0.028302039761192496 -0.069524354754176537 -0.063882643935495129 -0.072577319656240272 0.048713495447106188 -0.053803362969246163 0.036514810834777929 0.049132221188889116 -0.070389608086403724 0.02194959113878658 -0.066342571142727416 -0.053502206275908702 0.026711888689404675 -0.016159513938078698 -0.079012431955305162 0.038556981525450694 -0.078029140299491331 0.069252392428670928 0.093045012387192386 -0.051042972417670682 0.0077771554564410759 0.034205767854230025 0.031083239597400926 -0.078089086039327599 0.095026354980080399 0.015082488754220922 0.013854397193162364
leaf_weight=329.71548133867327 1018.2767042941414 66.625176769448444 31956.588677197695 381.60808382742107 2506.8574423613027 2498.4889708489645 489.9990440257825 88.029137279372662 5815.0967943440191 4989.134368873667 188.31211479846388 451.17157137196045 291.3451526099816 14170.925160294399 904.78207934414968 277.23733194940723 33.342355989385396 202.86207340355031 541.8935218610568 2061.8782927880529 79.675538344192319 269.59564169473015 2372.506679745391 57.95549784344621 3313.9607547046617 3048.8315019493457 1796.0189343462116 1485.658096451778 33.722236022120342 62.306759553495795 162.15006927913055 429.07150981831364 423.41408298304304 721.2638037474826 1188.9745184407802 619.20319142285734 229.48831408866681 177.8625754781533 172.3249832931906 361.17375539056957 1074.7869007501286 425.12864183692727 660.10343990335241 2832.8339501083829 240.40245110169053 1146.9143928219564 613.79728951631114 2539.1431620819494 8298.5768350670114 217.60185584891587 1145.7959448463516 34.962208930170164 117.17721453914419 990.86732426076196 468.38686316477833 415.12770696822554 343.51989483949728 263.62190582230687 127.50816089333966 86.708694025175646 176.62342392140999 173.05944373342209 3894.1028353651054 2856.4533060765825 1980.635129425209 590.08212741347961 76.234224621905014 52.619632283691317 127.52899631974287 684.9882153221406 983.41889208718203 79.746978850336745 171.08956483774818 2706.5380917334696 181.02639343979536 44.704766413196921 882.2847514472669 2404.3350586397573 73.750684856902808 391.65288170962594 139.66976252757013 314.39422392193228 388.66106713237241 54.601381682790816 407.72415377711877 62.426743193296716 1048.1317436951213 141.66085411852691 3061.0456819613464 58.940302938222885 497.69702742702793 66.818779543507844 502.81730431225151 410.19860615278594 235.54468053206801 1281.7827359227231 7415.9131687515182 220.16576567990705 27.479824930196628 5486.3493345435709 100.93247767165303 233.1529187093256 60.826183524215594 1042.4048101605149 237.75167769193649 317.53872423921712 5.5439969934523097 188.18891231832094 37.105275085894391
leaf_count=17378 9754 1154 2048296 3026 2450 148548 16927 3280 11573 13860 3307 16598 7315 10301 1606 761 1358 6179 24903 115969 1088 5325 2570 1958 2980 11679 45273 16591 1322 2129 2791 18166 3477 996 32833 4320 1494 1635 3095 3738 15254 14317 12616 46998 505 12819 24923 5771 12144 593 61942 1145 1930 5401 17316 1531 5983 7473 1115 2873 2461 1224 14394 16639 5819 5338 627 1238 4212 9427 16626 1729 1498 20687 7326 235 46555 6117 968 5219 267 2218 2562 1953 17334 2600 3804 5441 13679 139 24148 567 25639 19675 1843 27619 460026 2172 1284 6555 69 9812 1489 6102 1532 18551 4 3031 815
internal_value=0 0.042951 -0.069446 0.0151897 0.0591669 -0.0776175 -0.00935388 -0.0187573 0.0429063 0.02872 -0.0380596 -0.0530478 0.0212161 0.0691066 0.0341674 0.000132225 -0.00765374 -0.0227209 -0.0816505 -0.0637237 -0.0345692 0.0176962 0.0573175 -0.0829163 0.0626664 0.0199806 -0.0376479 0.00999193 0.0223161 0.0091066 -0.055282 -0.038459 0.028877 0.0450278 -0.0326501 0.0405284 0.0422942 -0.0168976 -0.0376156 0.0244441 -0.00366926 -0.0119818 -0.027233 -0.00652963 0.0744884 0.00294634 -0.0428933 0.0384115 0.059767 0.028494 -0.0631878 0.0162013 -0.0239595 0.0440224 -0.0314966 0.0434085 0.00205791 -0.0211102 0.0095002 -0.0187399 0.00250159 0.0308408 0.028663 0.0215537 0.045581 0.0383938 0.0318469 0.00565995 -0.0484654 -0.00657704 -0.015896 0.00616599 0.0146276 0.0169852 -0.0280554 0.0575383 -0.0686713 0.0579753 0.00172948 -0.00676239 0.0518759 0.0122663 0.00763341 -0.0185418 -0.0528612 -0.0212381 0.0436339 -0.0242724 0.0352988 0.0124103 -0.0568491 -0.0218034 -0.0525304 -0.0462521 0.00221654 -0.0142143 -0.0833523 0.0229438 -0.0110133 0.068119 0.0527546 -0.0561611 -0.0388727 0.0278238 0.0135783 -0.060819 -0.0649253 -0.0121598 -0.0496344
internal_weight=0 93228.5 57660.1 34376.5 58852.1 49655.2 12216.3 8004.91 22327 22160.2 3959.2 7001.32 15176.8 36525.1 13898.8 4045.71 1431.65 7085.67 42653.9 2813.2 754.258 1991.63 8428.21 39840.7 16627.4 4302.65 2964.74 6156.57 677.388 5130.63 2527.56 3620.55 9020.21 6983.37 2873.94 9596.17 6262.11 2054.09 751.324 1470.2 1923.87 4120.93 1085.23 3035.7 19897.7 3660.43 1684.96 8691.39 13313.4 643.666 1897.02 4232.7 568.349 5980 630.537 4934.91 1632.52 1876.22 1202.3 430.229 625.05 8395.16 7173.97 3279.87 4519.78 867.319 3756.48 282.108 751.224 1810.46 1045.73 764.735 204.432 4192.2 1977.05 10806.6 3380.77 10702.9 1124.31 802.909 6055.7 1849.97 1535.58 1788.19 549.826 142.102 1221.19 411.256 3137.28 103.645 987.696 243.442 1116.61 468.154 1253.82 1524.57 39372.5 321.396 101.231 5726.75 5916.03 623.695 293.979 1403.58 426.064 746.61 40.5062 1469.97 578.999
internal_count=3709921 484370 3225551 371836 112534 3008480 232288 217071 71108 139548 145572 333743 116559 41426 56629 71499 30632 173784 2674737 144782 23878 26508 14479 2529955 24065 23276 93674 70967 6754 58504 114940 138640 45592 22989 101923 33353 21993 44991 28813 10994 32540 80110 26933 53177 17361 47510 69090 31747 21085 5432 94833 38427 18528 19261 20107 13121 25225 43356 16369 8856 6054 39538 34510 20116 11590 6099 18626 2732 32891 29911 18755 11156 2856 37278 52599 18635 195103 18261 20409 15985 11909 17599 15381 40076 21022 3688 5028 10766 14306 374 41075 3028 50562 21633 11597 32603 2508322 4424 2252 7060 11642 28679 11301 9840 4839 36717 1149 30650 25718
is_linear=0
shrinkage=0.053422


Tree=4
num_leaves=110
num_cat=0
split_feature=5 0 0 9 6 7 5 6 9 5 7 5 6 6 6 0 5 5 18 9 7 0 9 9 7 0 5 6 7 6 6 1 0 6 15 7 17 1 6 6 14 1 1 9 8 12 18 14 1 17 0 14 18 17 13 14 18 12 18 13 2 14 12 2 1 4 7 16 12 13 1 12 12 15 18 0 15 6 2 7 0 7 17 12 2 6 12 14 12 15 17 2 14 5 17 2 16 17 16 7 6 2 18 13 7 18 5 7 16
split_gain=137658 12816.8 7208.57 4480.81 2110.95 1477.2 1312.07 887.183 720.944 599.263 583.997 469.659 405.466 351.137 336.804 331.316 302.839 270.335 259.253 240.696 237.425 216.406 205.933 190.048 182.961 182.04 171.86 156.788 149.577 147.611 146.766 144.204 139.447 131.484 123.849 120.154 122.375 118.956 112.348 111.103 108.406 105.876 100.726 99.5662 97.7282 95.887 94.3021 93.0657 93.0391 94.41 90.7841 90.0571 89.9627 89.6024 88.4581 86.8426 110.871 84.8975 83.3476 81.4918 88.4283 77.0868 76.0369 75.7195 74.9043 74.8707 101.913 76.6509 73.6587 73.4152 72.4072 72.2736 71.4722 70.607 70.3787 69.9544 69.0348 67.1315 66.448 64.9319 64.9165 64.6641 64.6452 63.6925 63.0324 61.9999 67.3429 61.9194 61.4356 65.5387 60.9629 60.9354 60.3103 59.7664 59.4138 58.5388 56.9414 56.7345 56.1298 55.9943 55.4011 55.3394 54.2747 53.8922 53.6413 53.1176 52.5905 78.6124 52.2878
threshold=4.5000000000000009 7.5000000000000009 12.500000000000002 6.5000000000000009 13.500000000000002 6.119705175269786 63.500000000000007 7.5000000000000009 14.500000000000002 1.5000000000000002 7.5242397111863086 41.500000000000007 1.5000000000000002 5.5000000000000009 3.5000000000000004 2.5000000000000004 235.50000000000003 164.50000000000003 0.88691527847888285 4.5000000000000009 5.3480326430016385 1.5000000000000002 3.5000000000000004 4.5000000000000009 3.7343644240300704 1.0000000180025095e-35 14.500000000000002 3.5000000000000004 10.239465404312424 8.5000000000000018 25.500000000000004 0.000167381211804388 13.500000000000002 5.5000000000000009 0.84945428221405506 3.7343644240300704 20.422647107737223 1.251481925154343e-05 33.500000000000007 46.500000000000007 67.500000000000014 4.9369564203499148e-05 0.0014234527892344475 4.5000000000000009 6.3383495201306879 13.770098432696827 0.81974597548368056 248.50000000000003 0.00051946462463942739 53.617852249725026 2.5000000000000004 665.50000000000011 0.82617907148120862 84.644200658663593 1795.5000000000002 170.00000000000003 0.85198226395409504 10.742907320721322 0.91685867895545325 50.500000000000007 0.6641700175111821 49.500000000000007 8.2863954132321513 0.66744516400971066 1.5205894754515545e-05 1.5000000000000002 7.5242397111863086 68.37249844251545 9.188634574655083 85.500000000000014 0.0013479591543898567 8.6855847141452376 8.4872469739508976 0.93533452807646367 0.85694980694980705 1.5000000000000002 0.85429852320675115 24.500000000000004 0.84961495688526256 9.3499163388457731 1.5000000000000002 5.5491514688124992 77.951326951812177 11.814544761623649 0.75953592417876803 10.500000000000002 12.006435859088896 49.500000000000007 10.721791121111503 0.81598297213622295 51.827578179518262 0.88713267889567515 27.500000000000004 1.5000000000000002 22.349758806721166 0.87582263861953191 34.217353689674532 9.2953052192405234 21.547594352245909 14.096305077668321 155.50000000000003 0.6307142202436723 0.90821007302003387 1183.0000000000002 7.9548633302527731 0.85985823287733087 9.5000000000000018 5.3027372303290337 34.217353689674532
decision_type=2 2 2 2 2 2 2 2 2 2 2 2 2 2 2 2 2 2 2 2 2 2 2 2 2 2 2 2 2 2 2 2 2 2 2 2 2 2 2 2 2 2 2 2 2 2 2 2 2 2 2 2 2 2 2 2 2 2 2 2 2 2 2 2 2 2 2 2 2 2 2 2 2 2 2 2 2 2 2 2 2 2 2 2 2 2 2 2 2 2 2 2 2 2 2 2 2 2 2 2 2 2 2 2 2 2 2 2 2
left_child=2 3 7 6 10 14 13 9 17 28 27 20 -7 40 23 37 53 21 38 26 42 64 44 -4 46 83 51 61 74 43 82 34 -22 -33 91 45 -37 -9 59 108 52 -28 102 93 -11 -20 85 58 92 73 -21 57 -2 -8 -18 77 -57 -15 106 -17 -61 -3 -42 -39 -5 66 -46 -68 -55 80 -32 96 -43 -50 -1 -30 -45 -34 97 -56 -24 -65 -26 -10 -66 -16 90 -60 -23 -90 -87 -12 -31 -14 -83 -41 -27 -40 -35 -54 -44 -36 -6 -19 -86 -62 107 -29 -13
right_child=1 4 5 8 11 12 16 15 25 22 31 39 29 19 24 18 54 103 35 50 32 88 69 -25 30 71 41 47 75 48 70 33 55 98 101 36 -38 63 78 95 62 72 100 76 65 -47 -48 -49 49 -51 -52 -53 99 68 79 56 -58 -59 87 60 105 -63 -64 81 84 -67 67 -69 -70 -71 -72 -73 -74 -75 -76 -77 -78 -79 -80 -81 -82 94 -84 -85 104 86 -88 -89 89 -91 -92 -93 -94 -95 -96 -97 -98 -99 -100 -101 -102 -103 -104 -105 -106 -107 -108 -109 -110
leaf_value=-0.047836001608086313 -0.041998347897841161 -0.038911732834431625 -0.079727452277725888 0.070974150539192662 -0.019644165185761019 -0.068387283617127995 0.045091818917187054 0.058557501809055224 0.069524244727388371 -0.070686587693840161 -0.022458343330859741 0.016086353147550438 -0.058793481934547843 0.0084702396255786107 -0.061960153396919238 0.022724183422516593 0.06755552693584288 0.062451768960099165 -0.06905118604135238 0.045011258459703732 0.023101144606382639 0.036844342181972731 0.0419491406103761 -0.043465858653958481 -0.065819917481353615 0.0165221759440684 0.052621009982279907 -0.052793188355481774 -0.00043257633939709192 0.0019533029154305708 -0.080139649695867898 -0.024650763523277417 0.0038270294975497575 -0.021010725500784443 -0.0065989764714643592 -0.084704441938107763 -0.010611345788703741 0.030686253766269642 -0.048999888602237619 0.041248455981383721 -0.09376775761540751 0.01210373130471883 -0.0075134620026064015 0.037738397791739903 -0.046742153001614051 0.080081556664222578 -0.073376673021128547 -0.064737147350629909 -0.0161177730414893 0.016378193369000163 0.0286070637339669 -0.049934534202260045 0.00073168598124698139 0.036605443020182205 -0.0080856773964625185 0.0087824415059320638 -0.03570897236119959 0.025679471552267172 -0.025331991168659671 0.0020469284084363229 -0.021065874975815819 -0.068281069896284505 -0.01737357720692807 -0.030269787002426746 0.060510301762417708 -0.048907304767953727 -0.018238042162319373 0.016330733119512091 -0.073489821914229134 -0.037016813222528006 0.01498945081253928 0.064135167062496765 0.028776350480634465 -0.077657789319531129 -0.071463648451401546 -0.042756706131445443 -0.0335305693588051 0.019622779627580956 -0.080165431931692149 0.051601604643653785 0.0019759028021624401 -0.019196050303357796 -0.038301396742327423 0.076481311497736196 0.027401907433119811 -0.089583142174591276 0.014947647458753948 -0.05859859894479414 -0.0021278607507618594 0.051467622821424863 -0.010068593247980399 0.058198068295946259 -0.048508100952820342 -0.041296437000459617 0.019098119238906097 0.020414008565571445 0.053771816876792181 0.034948694905193985 0.00060343820447752679 0.028767266497578003 0.059833371225492024 0.022173318940236345 -0.061211333598080182 0.075309757732238469 0.052036355784125458 -0.063791162497493087 -0.0079831286786885211 -0.014488235330037938 0.033910654190517794
leaf_weight=547.01739859115332 90.604463729308918 668.445272276178 36210.216388595873 855.237902617082 179.25265620439313 1885.1612018605229 7537.2392572045792 196.58847810956649 8891.9372267376166 121.04406165506225 391.99207378225401 1484.348887354834 910.89319274772424 1958.5908098092768 414.27983377012424 195.75501136737876 2692.9732436966151 3634.65135876555 293.87562316656113 2804.8867145003751 2230.3785178728867 2844.0063945830334 232.75720901694149 417.24063890578691 573.4840827594744 142.0984819829464 493.68256380409002 232.05526808917057 151.54956374922767 80.859149723546579 27.21224663965404 1294.2150533484528 1996.6402490338078 419.72233501076698 236.28270902438089 73.822764809243381 460.2147609856911 481.37429347936995 24.531787326326594 2342.1274213893339 42.692922818474472 812.29331999504939 256.52430116862524 65.208093515713699 214.58491450105794 12.841923465486614 3690.0957252630033 162.32110714016017 386.39278829714749 250.11288648867048 1466.0500517985784 60.816892768256366 425.89043320599012 36.412394745275378 72.53115348611027 349.36458108352963 294.67316684452817 1404.9778475540224 394.37209787033498 403.90713105001487 292.14999447157606 412.4184020429384 288.11131577845663 132.12991615978535 2996.4817893989384 215.15407985227648 483.85890173492953 294.46312239160761 33.116396028548479 69.021957308286801 141.95003229496069 6690.4760515568778 7592.5394741413184 61.704535532044247 1051.1332511720248 421.20584957138635 95.739652641816065 1247.716505906079 16.400451418012381 183.90047999564558 231.03533064818475 148.5137511419598 423.56856060458813 6501.5613127946854 266.05225768778473 56.835933379130438 73.466532649472356 268.32318503491115 67.656940877437592 1733.2554893270135 53.345759961288422 28.688531416235492 412.05853250389919 1434.6370879172464 522.18112944508903 460.55858196434565 666.22529062395915 362.12028515851125 1873.2139389941003 389.03044658433646 40.342008298262954 990.59073771489784 179.33697743481025 1250.3165833028033 4867.5173582592979 116.02446074062027 924.25302427122369 448.29403100186028 687.12341841170564
leaf_count=24897 1507 22949 2409250 682 3811 116043 16367 770 7522 5010 6827 11498 47927 16114 23479 2968 3186 4681 14391 8206 17612 10768 1272 19635 32831 501 1087 8808 2632 1799 1596 32949 27385 9853 3493 3523 10697 3713 794 9224 1121 4566 3817 1197 7267 37 226595 6826 11568 4736 7454 1205 4186 72 299 4554 6684 9930 9647 5698 7626 21234 4505 4256 4281 8571 11017 4032 296 1620 2270 9718 30170 3934 60258 16486 4135 12576 722 374 4392 2375 17706 4323 554 3116 1547 9891 521 4308 1707 184 16394 61015 5154 2845 1440 2327 30297 3093 79 11159 5510 1001 8404 4566 17807 10111 4298
internal_value=0 0.040684 -0.0662687 0.0515908 0.00353941 -0.0740446 0.0352424 -0.0185385 0.0627982 -0.0359101 -0.0163332 0.0183321 -0.0482241 0.0264051 -0.0774701 0.00023125 0.0501693 0.0549601 -0.0126763 0.0284514 0.0091793 0.0510956 -0.0136737 -0.0793144 -0.065085 0.0691377 0.0246636 -0.0331911 -0.0549816 -0.0379442 -0.0463233 -0.005028 0.0124527 -0.0110371 0.00805533 -0.0361588 -0.0208536 0.0198581 0.00131707 0.0307971 -0.00106041 0.0285773 -0.021378 -0.0453023 -0.0249226 -0.0628072 -0.0701876 -0.0256609 -0.0224606 -0.00991568 0.0393803 0.0144937 0.00850084 0.0445349 0.0647006 0.00634469 -0.0115742 0.0156586 -0.0228633 -0.0082162 -0.0156745 -0.050118 -0.0272329 0.0139338 0.0559354 -0.0203372 -0.0141463 -0.00515961 -0.0158327 0.0143868 -0.000313468 0.0623122 0.027165 -0.024592 -0.0633763 -0.0315579 -0.0046559 0.00990177 0.0251551 0.0347192 0.0220367 0.00388909 -0.0541295 0.0724626 0.0543534 -0.0505067 -0.0246695 -0.0388015 0.0417334 0.0494541 -0.0510852 -0.0169579 -0.0402303 -0.0480915 0.0106185 0.0378248 0.0472236 0.0296224 -0.00335304 0.0141154 0.00163849 0.0166321 -0.0404326 0.0657428 0.0507597 -0.0332106 -0.0162809 -0.0275534 0.0217265
internal_weight=0 90287.4 55429.7 69793.8 20493.6 47664.5 28386.3 7765.26 41407.5 4032.83 8745.19 11748.4 5582.77 17830.2 42081.7 3732.43 10556.2 18515.2 2251.64 16593.8 6774.23 13630.2 1861.92 36627.5 5454.24 22892.3 12322.9 3510.48 2170.91 3697.61 1166.21 5234.71 6118.77 3587.15 1647.55 840.755 534.038 1480.79 1410.89 4974.16 1236.33 8898.52 655.456 2506.48 1329.11 306.718 4288.02 2429.62 1191.13 698.21 4270.94 3424.39 905.525 7606.77 2949.4 3888.39 644.038 3363.57 2267.3 1007.84 812.082 1080.86 330.804 1284.2 8985.29 1208.06 992.907 778.322 69.5288 532.814 169.162 7498.8 8404.83 448.097 1598.15 572.755 160.948 3244.36 403.053 256.432 463.793 802.825 997.053 15393.5 8130.05 597.928 183.648 662.695 4644.92 1800.91 110.182 420.681 492.918 2345.53 670.695 2802.69 808.324 386.652 2292.94 814.921 296.866 1226.87 358.59 4884.97 5133.57 408.174 1604.6 680.349 2171.47
internal_count=3709921 484370 3225551 172442 311928 3008480 113738 217071 58704 147454 202035 109893 268748 93144 2739732 69617 20594 35200 53349 78732 82028 29518 43181 2428885 310847 23504 63072 107273 104273 152705 54403 94762 68811 73099 21663 28648 14220 16268 24701 27865 14412 35823 13217 114274 35897 14428 256444 63090 38431 20238 15660 27249 8786 16735 3859 51199 11238 26044 56264 20858 17890 44183 5626 15498 13921 30887 22316 15049 368 7284 3866 11659 34736 15502 85155 19118 5332 39961 3843 673 5664 11785 50537 11845 13239 29849 6370 19538 15597 4829 4823 7011 18193 108942 7529 12069 1941 3121 40150 7279 3896 14652 9321 5682 8958 12192 36726 18919 15796
is_linear=0
shrinkage=0.053422


Tree=5
num_leaves=110
num_cat=0
split_feature=5 9 0 0 0 7 5 6 5 6 9 6 5 6 9 5 15 6 6 6 0 9 9 18 2 0 5 5 7 7 6 12 7 9 7 6 1 9 12 15 17 18 2 1 1 18 6 1 4 7 6 14 18 5 13 5 14 18 12 5 0 1 6 2 2 15 7 18 12 12 2 7 15 7 4 0 18 6 2 7 14 16 1 2 17 12 8 0 7 16 6 6 14 5 5 5 1 12 16 17 15 12 7 5 6 6 5 14 15
split_gain=121349 11391.8 6349.11 3988.65 1476.61 1299.77 1267.43 1245.12 777.538 568.613 433.074 418.543 367.532 338.604 323.434 305.619 305.128 277.83 259.164 248.89 243.314 180.271 174.748 172.272 163.11 148.854 133.626 131.698 128.732 119.571 117.376 115.728 115.721 113.484 112.652 109.568 105.639 96.0425 92.8728 92.737 92.4634 90.9234 88.0126 88.5008 87.6364 87.351 82.0405 77.9709 76.239 94.6921 76.0317 75.7895 99.4884 74.7219 131.602 73.4734 72.4234 113.116 105.598 71.0733 70.921 68.2785 67.5417 68.6228 67.346 65.411 65.2765 63.0825 61.6602 61.3955 60.3193 59.8383 59.5503 58.4149 67.3887 58.3247 56.929 56.4832 55.9318 55.8799 55.4205 55.319 54.2855 71.3101 54.0296 53.8657 52.5489 51.3685 53.9139 51.3163 63.8777 50.4189 50.418 92.1073 52.7569 67.4456 50.0621 49.9505 55.8224 131.22 49.7894 49.6093 49.4009 53.0263 49.3585 49.2729 48.7938 55.6887 50.1041
threshold=4.5000000000000009 5.5000000000000009 12.500000000000002 12.500000000000002 1.5000000000000002 5.5033772668372514 16.500000000000004 42.500000000000007 1.5000000000000002 13.500000000000002 12.500000000000002 1.5000000000000002 14.500000000000002 86.500000000000014 2.5000000000000004 194.50000000000003 0.92356377799415801 5.5000000000000009 5.5000000000000009 26.500000000000004 17.500000000000004 2.5000000000000004 4.5000000000000009 0.84216632067407504 0.6630358006801268 1.5000000000000002 2.5000000000000004 164.50000000000003 4.2310459011374535 9.8216839376311569 17.500000000000004 11.814544761623649 5.3480326430016385 9.5000000000000018 6.2178625800708609 24.500000000000004 0.0001359363123387137 24.500000000000004 7.9343316537934063 0.84913147648996723 31.169730059021681 0.82768199233716488 0.64106846291170683 0.002027403479086276 0.00080613186086381271 0.94127500246329698 3.5000000000000004 1.5205894754515545e-05 1.5000000000000002 10.167823090207706 1.5000000000000002 153.00000000000003 0.80382994319223033 495.00000000000006 854.50000000000011 50.500000000000007 137.50000000000003 0.90821007302003387 11.580403323841102 23.500000000000004 2.5000000000000004 0.00081156313854542726 3.5000000000000004 0.68121419550813833 0.81513989936993836 0.89498746867167933 5.4462746104330408 0.82768199233716488 10.94771207341598 10.742907320721322 0.66847385793418612 12.011815387306422 0.86512474012474028 9.39926145774883 1.5000000000000002 1.5000000000000002 0.94596948865241559 44.500000000000007 0.84075916288616548 5.9573249079290873 44.500000000000007 29.835133442139796 0.00017525652093664784 0.81790933046313119 49.849916921291097 10.451983257078924 22.372839995488576 1.5000000000000002 11.768038724017698 72.358077033068795 17.500000000000004 29.500000000000004 681.50000000000011 48.500000000000007 182.50000000000003 162.50000000000003 6.3364909897743263e-05 8.3030024750499845 37.349849596936643 57.279373252228602 0.85429852320675115 8.574990250054805 17.316746702512365 2.5000000000000004 3.5000000000000004 36.500000000000007 28.500000000000004 25.500000000000004 0.90709661951570364
decision_type=2 2 2 2 2 2 2 2 2 2 2 2 2 2 2 2 2 2 2 2 2 2 2 2 2 2 2 2 2 2 2 2 2 2 2 2 2 2 2 2 2 2 2 2 2 2 2 2 2 2 2 2 2 2 2 2 2 2 2 2 2 2 2 2 2 2 2 2 2 2 2 2 2 2 2 2 2 2 2 2 2 2 2 2 2 2 2 2 2 2 2 2 2 2 2 2 2 2 2 2 2 2 2 2 2 2 2 2 2
left_child=2 3 8 7 10 18 17 12 9 29 27 -7 21 20 35 60 24 32 22 66 33 46 -4 30 91 48 42 47 -19 62 -20 37 -5 59 55 75 -36 97 40 -17 -38 85 43 -13 73 89 71 -3 49 -16 -34 69 -53 54 -21 82 58 77 79 -6 -9 -40 -1 -64 -32 -37 101 -49 100 -48 -69 -2 -44 -23 -75 -10 -77 -58 -41 -30 -52 -45 84 -84 -14 -26 -46 88 -31 90 -28 -11 94 -94 95 -62 -24 -12 99 -99 -35 -8 -27 -104 -50 -72 107 -68 -109
right_child=1 4 5 6 13 11 19 15 14 16 31 26 34 -15 25 39 -18 28 23 53 -22 44 96 -25 41 102 45 -29 56 87 64 -33 50 68 36 65 38 -39 61 78 -42 -43 72 81 86 -47 51 67 104 -51 80 52 -54 -55 -56 -57 57 -59 -60 -61 92 -63 63 -65 -66 -67 106 70 -70 -71 105 -73 -74 74 -76 76 -78 -79 -80 -81 -82 -83 83 -85 -86 -87 -88 -89 -90 -91 -92 -93 93 -95 -96 -97 -98 98 -100 -101 -102 -103 103 -105 -106 -107 -108 108 -110
leaf_value=-0.066419489172704543 -0.044444351013818897 0.068396300101572091 -0.076351100883491493 -0.056530647821570468 0.023861318158131167 -0.067141492835496364 0.024785821782546871 0.043048576563470498 -0.0033204613204597579 0.010601869815943802 0.04161426775887446 -0.038750407907025115 0.0056447141043639813 0.053888337684022208 -0.0092461574074892017 0.039994734066348611 -0.066009878645737777 -0.062613030119083674 -0.05141184098307261 0.022385809658649027 0.0085862701480366559 0.0076378383204040948 -0.059234397064651702 -0.067469866100531947 -0.075800553709052254 0.0073629046583588804 -0.035176276090864725 0.063758603740156766 -0.026097450951350493 -0.050259753524191833 0.0064687774716343802 0.071899649435038931 -0.050596639468271351 0.025004270239738943 0.038572552504352119 0.021237627548112016 -0.09343984512350198 0.068628516492466013 0.028973821820039103 0.066288071933980744 0.0056526888345179976 -0.03480037613272343 -0.041312353401119314 0.031008296281423302 -0.022417075136167312 -0.054194770676822851 0.00054598958014333895 0.03416556520956681 -0.045823548539919504 0.055097885089814252 -0.015982337424490987 0.038701359561343483 -0.028408178320380846 0.073045890552330517 -0.063403136571360194 0.02775534652763734 -0.02515442879076854 -0.067167130119333521 0.019153850706980211 0.03802657735069969 0.033649163956728317 0.017609610581117145 -0.028675010189070316 -0.058797033844220657 -0.071914050064889296 -0.046040343814068047 0.026368371224457267 0.064843226383006214 0.056796744727859595 0.021417596796482915 0.043557832146458121 -0.00024785205416395903 -0.061143959231882164 0.040727139113252125 0.018030684775421378 -0.022646996786031923 -0.05261996412565783 0.016840447631829548 0.036543810603111869 -0.0083374235050254313 -0.03748834664255226 -0.061918449109276769 -0.0039956909018715875 0.028279010528964581 -0.06169703132999399 0.022347517615321832 0.011365248187915169 -0.039197516671706276 0.013592548682637991 -0.0044689898807925461 -0.00064082983773188125 0.044494476865707976 -0.096817466133802751 0.020625778892063323 -0.017312680625647895 0.062908661838495847 -0.022751449792458776 0.058376550060122913 0.065679614215672769 0.01189799835999804 0.044283956531928424 -0.020221865522449079 -0.053930177293081666 -0.002077767509403354 0.019103550204168131 0.053122913225900459 0.012107682150428596 0.0021057863999835867 -0.018746103412220681
leaf_weight=971.85696263308637 201.38694033119828 665.63356033340096 35777.963334652828 638.93732379155699 1661.7342034818139 2308.3057251011487 80.068148755934089 4145.9707145253196 352.90705674979836 233.634302880615 417.04743804503232 740.57212607585825 67.441350087989122 4283.118217513198 77.698509292211384 616.6242971108295 191.96715231996495 151.50358164682984 605.9142577724997 2732.6363772916375 858.98311177652795 480.1128080803901 228.98844304028898 2300.6280072593363 17.584698292193934 806.49704831978306 702.72582618833985 3069.2528338693082 652.82432106672786 54.55226444429718 190.23269144259393 8582.7669497290626 404.72605259297416 454.76112758042291 1950.9180837706663 280.70104113104753 29.630387813318521 6421.581964392215 5540.3239654919598 1935.4050187245011 288.86537897842936 274.26876029837877 738.9991591948783 89.709481941070408 192.66460069152527 267.23213726253016 1298.7739342860878 709.9266136623919 37.248120388248935 408.18845987599343 875.4965454202611 75.58378720912151 380.00537581671961 80.327541997656226 52.002984849736094 527.75465913629159 434.60918272286654 161.52305599674582 339.40968010993674 2580.9188227944542 4452.4245731560513 2073.5665636193007 375.03943179175258 508.49798461206956 37.440122056519613 48.345965988002717 178.81538906972855 784.01888601668179 970.94353554164991 582.67127504269592 2636.7763372529298 154.49791789182927 1040.6225002958672 726.08966289670207 768.49909539357759 1028.2311839510221 219.44539860473014 115.74803138640709 198.97221316955984 2241.9938956610858 561.16713094036095 22.961971047800034 521.73177425190806 312.33571836841293 68.575914195273072 172.55673709406983 413.31734225153923 546.95725068985485 122.44640672812238 390.58341286296491 195.33489486610051 270.05277728335932 22.426026155240834 126.90153472893871 55.399540273472667 236.790517331101 202.06221431691665 3026.7817844962701 3206.588244933635 183.88691719248891 2398.3761865210254 549.96285762125626 85.54351645836141 164.56349743681494 324.77661371184513 3685.0066276234575 1312.3322264387971 933.57899908232503 507.72461270890199
leaf_count=56359 4666 564 2475540 31109 10660 151068 907 9091 5822 2334 712 33668 398 8966 766 1498 8781 6154 31040 19097 13134 3445 11735 141424 882 12812 27035 3313 16363 1499 3712 6462 15804 2647 6109 2394 531 5186 24569 2098 2347 9364 33779 1144 2578 13584 14547 1834 962 899 20979 530 6225 100 1464 1474 11832 6653 5401 9972 14191 13279 13753 26345 2146 1423 1879 972 2368 5406 5632 2493 58104 3142 7662 27846 7506 1268 479 40724 19603 1087 3887 1504 721 1487 4483 22099 1701 9879 4395 968 871 651 159 320 9140 3900 3067 451 8776 12226 3761 3836 3472 6211 15123 14369 9134
internal_value=0 0.0385372 -0.0635261 0.0181635 0.0566606 -0.0710126 -0.0063447 0.0293687 -0.018213 -0.0355456 0.0626419 -0.0488762 0.0199645 0.0415409 -0.00130864 0.0426522 -0.00448275 -0.0228299 -0.0746681 0.0105265 0.0356159 0.00830614 -0.0759437 -0.0599308 0.00771766 0.0143093 -0.0388106 0.0542761 -0.014288 -0.0495161 -0.0391238 0.0670666 -0.0369415 0.0384941 0.0253666 -0.0167233 0.0274357 0.0639374 0.0246966 0.0582432 -0.00356612 -0.0151189 -0.0461456 -0.0320395 0.0183958 -0.0263983 -0.00136296 0.0508445 0.0309814 0.0448086 -0.0301443 0.00227573 -0.0172745 0.022249 0.0207837 0.011714 -0.0124327 -0.0278588 -0.00903724 0.0324784 0.0379076 0.0258789 -0.056701 -0.046011 -0.00642105 0.0113527 0.00109915 0.0493497 0.0451682 0.00700979 0.0508667 -0.0252576 -0.0529088 0.0238492 0.0290569 -0.0224952 -0.0279187 -0.0163223 0.0635152 -0.0123426 -0.0243827 0.0120702 0.00298698 0.00809031 -0.028307 0.0132706 0.000624569 -0.0311024 -0.00608719 -0.0206341 -0.0276646 0.0287735 0.0335524 0.00298814 0.0345144 0.0351267 -0.0421324 0.0595296 0.0606939 0.0557146 0.041211 -0.014502 0.000930206 -0.0198127 0.0124233 0.0491334 0.00445103 -0.00175103 -0.00523966
internal_weight=0 88049.2 53413.8 41451 46598.1 45840.3 13005.4 28445.7 7573.56 3739.41 33389.3 6497.05 16654.7 13208.8 3834.15 11790.9 1160.06 6577.94 39343.2 6427.45 8925.72 5273.6 36209 3134.22 968.097 1904.52 4188.74 11550.6 4097.61 2579.35 833.587 21838.7 2480.33 8066.73 11381.1 1929.63 9883.3 13255.9 7932.39 2751 318.496 464.41 2632.87 853.244 2580.68 1555.88 2692.92 8481.36 847.912 485.887 1841.39 2337.03 455.589 2864.97 2784.64 1497.84 3946.11 711.88 3234.23 4242.65 9039.91 7613.89 1855.39 883.537 227.673 329.047 3562.48 7815.73 3824.08 1881.45 7105.8 355.885 1779.62 1974.7 1494.59 1600.58 1247.68 550.357 2134.38 2894.82 1436.66 112.671 970.085 834.067 136.017 190.141 605.982 723.956 176.999 1288.64 898.061 503.687 4893.94 149.328 4744.61 4689.22 431.051 6834.3 6417.26 3210.67 2853.14 630.031 1056.6 250.107 362.025 6321.78 2932.45 1620.12 1441.3
internal_count=3709921 484370 3225551 389543 94827 3008480 250189 139354 217071 145572 38304 333743 109996 56523 71499 29358 23816 175890 2674737 74299 47557 55177 2496415 178322 15035 26508 182675 18526 88395 121756 36898 19778 87495 34423 54819 44991 46835 13316 40726 4075 2878 11733 127782 35899 21310 54893 33867 15213 6099 1665 56386 26708 6755 20661 20561 7984 82241 19753 62488 20632 25283 37848 96457 40098 5858 3817 53638 14649 13791 19953 12815 7159 91883 14249 10804 41174 35352 13100 2577 57087 40582 2231 6510 5391 1119 2369 7061 25299 3200 41309 31430 3302 16192 1522 14670 14511 20875 8130 7418 4351 11423 13133 20409 7597 4434 11843 40505 25382 23503
is_linear=0
shrinkage=0.053422


Tree=6
num_leaves=110
num_cat=0
split_feature=5 0 0 9 6 7 6 5 6 5 7 0 9 6 5 9 6 5 15 9 7 9 7 0 2 6 1 12 6 7 6 0 18 14 0 6 6 14 16 0 7 17 0 6 5 13 6 18 7 6 5 14 14 5 15 4 2 1 12 12 4 17 1 5 17 16 1 6 2 12 18 5 1 1 12 7 2 8 9 8 15 17 12 2 6 13 2 13 17 16 12 17 13 13 0 1 6 1 5 0 5 13 18 18 13 12 9 12 14
split_gain=108221 10298.6 5610.19 3787.89 1678.25 1166.92 1138.41 667.115 500.158 436.425 410.113 401.509 387.995 319.843 293.235 279.328 273.835 260.417 250.575 196.414 166.981 149.31 144.659 141.006 133.372 133.106 128.328 123.351 115.035 107.277 103.541 103.001 99.8406 98.8346 96.1511 94.0117 92.9575 96.0029 92.0823 89.8754 84.9337 105.096 80.9902 80.6473 78.1031 77.5161 89.5844 75.2702 75.0397 74.6512 73.0385 80.6195 72.9166 72.5369 70.3016 70.0109 69.3495 68.4314 67.5835 67.4888 64.4434 63.6404 63.1743 89.7586 124.064 62.2767 57.3468 57.2206 57.0608 58.8322 56.5837 55.016 54.7236 54.4197 54.3145 54.1598 53.9714 53.7474 53.7262 53.5855 53.2463 82.5772 63.448 54.1924 53.0762 54.2272 52.4518 52.1713 51.988 51.9693 56.02 51.5774 56.1089 51.9444 51.3181 53.0834 51.2192 50.706 50.3194 49.891 49.7631 49.1526 48.928 48.6491 48.5638 48.411 47.9559 51.6454 47.3062
threshold=4.5000000000000009 7.5000000000000009 12.500000000000002 8.5000000000000018 11.500000000000002 6.119705175269786 52.500000000000007 1.5000000000000002 13.500000000000002 36.500000000000007 7.5242397111863086 1.5000000000000002 3.5000000000000004 2.5000000000000004 266.50000000000006 3.5000000000000004 3.5000000000000004 13.500000000000002 0.92356377799415801 21.500000000000004 5.4462746104330408 4.5000000000000009 3.7343644240300704 1.5000000000000002 0.66744516400971066 4.5000000000000009 0.001254974799078773 11.814544761623649 25.500000000000004 8.324953970823211 58.500000000000007 21.500000000000004 0.9355781927938126 28.500000000000004 2.5000000000000004 3.5000000000000004 10.500000000000002 43.500000000000007 22.187154509866367 2.5000000000000004 7.914549980182497 61.764125285137659 23.500000000000004 5.5000000000000009 274.50000000000006 631.50000000000011 46.500000000000007 0.82528511468181642 7.0014341580987525 5.5000000000000009 86.500000000000014 694.50000000000011 694.50000000000011 252.50000000000003 0.91130870953032372 1.5000000000000002 0.9065643906212234 4.6058410466386654e-05 13.171626693630261 13.09248649875631 1.5000000000000002 9.2953052192405234 0.0001359363123387137 45.500000000000007 8.9413036466526297 17.508864183782489 0.000167381211804388 34.500000000000007 0.81894215301890727 8.151040785964744 0.80382994319223033 8.5000000000000018 0.002027403479086276 0.0013479591543898567 10.037858313079301 5.3480326430016385 0.84961495688526256 21.156767260022026 3.5000000000000004 6.3383495201306879 0.86650165016501657 15.808938328625972 8.2863954132321513 0.8585433656398499 155.50000000000003 52.500000000000007 0.9065643906212234 310.50000000000006 77.951326951812177 34.217353689674532 9.104366443159444 102.10258047129334 69.500000000000014 120.50000000000001 2.5000000000000004 0.00026513145838061352 10.500000000000002 4.6058410466386654e-05 19.500000000000004 367.50000000000006 42.500000000000007 39.500000000000007 0.97755328261198182 0.98344824437240319 52.500000000000007 12.428421697661642 23.500000000000004 10.231897891603793 153.00000000000003
decision_type=2 2 2 2 2 2 2 2 2 2 2 2 2 2 2 2 2 2 2 2 2 2 2 2 2 2 2 2 2 2 2 2 2 2 2 2 2 2 2 2 2 2 2 2 2 2 2 2 2 2 2 2 2 2 2 2 2 2 2 2 2 2 2 2 2 2 2 2 2 2 2 2 2 2 2 2 2 2 2 2 2 2 2 2 2 2 2 2 2 2 2 2 2 2 2 2 2 2 2 2 2 2 2 2 2 2 2 2 2
left_child=2 3 7 6 10 16 12 8 29 20 33 19 17 78 50 25 21 43 24 27 26 -4 47 57 61 79 -6 40 88 59 52 66 36 56 97 -35 37 99 80 -26 41 -5 -40 68 106 46 48 96 -27 -33 51 94 91 -52 87 -42 -3 -14 60 -1 -16 -10 -19 64 -64 -38 -12 -44 69 -2 -41 -25 98 -30 -67 84 -76 104 102 -9 82 83 -22 -82 85 -28 -65 -37 -24 90 -73 92 -11 -93 -8 -96 -18 -17 -59 -15 -53 -70 -7 -94 -31 -50 107 -13 -45
right_child=1 4 5 11 9 13 14 15 18 30 31 44 23 32 58 34 22 62 -20 -21 38 -23 28 71 39 45 75 -29 73 77 -32 49 -34 35 -36 54 65 -39 42 70 55 -43 67 108 -46 -47 -48 -49 105 -51 53 100 -54 -55 -56 -57 -58 72 -60 -61 -62 -63 63 86 -66 74 -68 -69 101 -71 -72 89 -74 -75 76 -77 -78 -79 -80 -81 81 -83 -84 -85 -86 -87 -88 -89 -90 -91 -92 93 103 -95 95 -97 -98 -99 -100 -101 -102 -103 -104 -105 -106 -107 -108 -109 -110
leaf_value=-0.059217721203684535 -0.058658323671182802 -0.023940121991331727 -0.073719522492753348 0.049366223149162239 -0.038540830375461452 -0.057064971984932648 0.042416236386259409 -0.065383352498935732 -0.044680281873858176 0.041970541026808535 0.017260729021042028 0.036183204805970176 0.055032417508772448 -0.015635402725068415 0.062444461236305454 0.047251260601466095 -0.058550377402646597 0.035081350787625205 -0.062698040387567142 0.066933869103530746 -0.09556471204293264 -0.040835980500025376 -0.061019780514037274 0.0094906508721091607 0.013481865534007157 -0.031878395207604208 0.024721841364868696 0.064350733379718 -0.074256537804758119 -0.024893357451463712 0.035135274744993061 -0.02353374163370443 -0.052326496081912553 -0.056152868096482157 0.00064699255659839865 -0.020928204679410544 -0.034929640840160293 -0.047181601531688419 0.020248725445727939 0.013011411336868667 0.06176590386692004 -0.019090951067374563 0.0026829503835803467 0.013132759819233123 0.060434045968451033 -0.055748989217734621 0.034485966978905921 -0.068121223282726046 -0.005102282243446327 -0.0058476545481331906 0.046999099527164426 -0.084454867980995302 -0.051654053289038535 0.0045455648103799639 -0.051239769604931124 0.05180787391424093 0.021737037786371916 0.030256697309499488 0.070001571902681914 -0.0092901275138454146 0.043414847219240875 0.02863232825323412 -0.05442401132933581 0.030779155133201078 0.017488628625511548 -0.025124720030912599 -0.0043865317204331731 0.029687086304039177 0.043065574271981322 -0.011892804910027206 -0.049002868575470926 -0.0019264798196351736 0.0090072241765667364 0.011573957939808947 0.017858748096298307 0.057439849530170527 -0.070749323603707018 -0.0083883500385251771 -0.029365502151201359 -0.024797883553779487 -0.070142690962834917 -0.0048979863786533353 0.0078035842853549954 0.024226044462746836 0.054567437088568156 -0.023443551494290924 -4.6784486406600854e-05 -0.06475957453357889 -0.035371925364927954 0.033666906832970973 0.025518235730120388 0.0058018682903004859 0.020886255051063011 -0.072546106340189404 0.019035917620934428 0.037478866608477386 -0.027368630782414166 0.018801504678176227 0.042640065048821972 -0.062802452908938322 0.0095257263227966175 -0.044856929870541885 -0.076162003205930112 -0.034164604406188154 -0.051749382528886549 0.023776263647384385 0.055374147279190336 0.047738878490967786 -0.0070478234204093358
leaf_weight=1458.4630590566085 95.897793736308813 755.59293139586225 33450.074290083314 181.36104377731681 402.89724739338271 1753.8480264883256 2668.3686624909751 105.67808393808082 36.270994770573452 376.63524429872632 567.48024966893718 2104.1606141687371 706.08101310674101 633.19767538504675 1154.9922511931509 299.81833503907546 482.65082695044111 1144.7663645870052 181.76724883250427 12554.922822118737 17.24982442567125 398.76641894027125 527.76378112949897 472.94429753301665 172.37144605384674 256.22639988758601 92.039090669713914 5317.1170401233248 24.856663955957629 339.58749463048298 2115.2404694175348 1204.5618646701332 582.86109864601167 671.41058078012429 539.10556045500562 940.3741414953256 225.05727772007231 834.96535887103528 2111.4655625785235 52.774948238162324 2993.6074134297669 98.90427115932107 2007.0568447944243 1623.9121151994914 1064.5766424871981 78.035273108631372 177.82961709750816 3283.7581371582346 899.65462688542902 1567.3366808177088 4797.2864634660073 22.143132081488147 40.145153650082648 117.67852897383273 388.01791755855083 6163.3257853656542 108.47978797880933 1427.5259154597297 1205.1900865929201 81.589036192977801 906.47808987926692 494.46507378667593 69.747042104834691 2554.3793744575232 3728.3080485486425 172.97106891009025 908.2222075558966 252.06501576141454 78.528722469927743 384.9478368452983 205.48059073498007 246.46913992706686 189.27054152591154 138.83165220892988 298.65522035188042 47.352326658088714 20.997450524009764 189.62205523950979 161.8660007516155 764.39265528926626 99.150583252427168 571.12841920251958 964.28013611806091 21.054857952403836 40.497245717793703 242.40017895132769 167.88574931677431 84.461034855106845 393.88253481290303 2494.0068786765914 1529.245352731552 204.13786311121657 2490.1759801183362 27.390856769867241 684.91374346241355 1273.5732437944971 218.35409576515667 442.90957473125309 2722.4562076441944 71.197106088744476 58.718829625984654 23.59961224719882 489.81550343637355 46.671519868075848 442.64161891187541 203.05838574282825 967.5541595639661 2321.6470434302464 416.53822516463697
leaf_count=81604 2286 22190 2409250 254 10651 110969 5794 4849 917 2252 5475 7866 919 20666 1394 1006 29243 3505 8781 10014 486 19635 32831 4147 2412 6242 1017 5072 1596 12455 9043 32653 31382 32830 10105 24864 8406 40733 19042 533 2892 303 29426 14669 1347 2948 1130 218884 16892 29988 9086 720 1115 288 15047 9502 1557 5589 1040 2638 1675 2728 997 7450 21290 5505 16386 2053 561 6218 8445 1745 880 2270 5562 304 1159 5523 8919 21840 3187 9067 12378 333 79 5221 706 4090 17706 10631 7008 2250 17755 558 2278 3974 8317 4162 6581 3686 360 612 31761 631 19536 2325 1934 5637 5218
internal_value=0 0.036661 -0.0611878 0.046614 0.00236259 -0.0684099 0.0337325 -0.0182118 -0.0344712 0.0144562 -0.0180889 0.0591897 0.0257781 -0.0447564 0.0461224 -0.00243452 -0.0715978 0.0185344 -0.00517696 0.0620225 0.00556896 -0.0733321 -0.0600194 0.0333922 0.0056987 -0.0128832 -0.0169727 0.0578432 -0.0427291 -0.0478025 0.0259729 -0.00746349 -0.0326155 -0.0333966 0.0178205 -0.0396944 -0.0275253 -0.0349279 0.00864684 -0.0163914 0.0541767 0.025208 0.0127265 0.00400649 0.0472105 -0.00380738 -0.00116985 -0.0647288 -0.00583573 -0.0135334 0.0414276 0.036672 0.0198882 0.0459826 -0.0318731 0.0550634 -0.0182056 0.0396089 0.059952 -0.0565727 0.0540767 0.0236221 0.0235067 0.0214745 0.016168 -0.0116472 0.00393791 0.00569598 -0.013517 -0.0212195 -0.0363301 0.0267788 0.0370992 -0.00145971 -0.0010105 0.00360511 0.0120382 -0.0339049 -0.0590896 -0.0297274 -0.00201189 -0.0133683 0.00598695 -0.0536133 -0.00319391 -0.0101882 0.0288781 -0.0245405 -0.0500587 0.0286938 0.0217089 0.0208015 0.02273 -0.00346704 0.0375962 0.0310291 -0.0488377 0.0302859 0.0383804 -0.0204028 -0.0162098 0.0227486 -0.0612341 0.0198735 -0.0400904 0.000215539 0.0446003 0.042245 0.00901309
internal_weight=0 86098 51586.1 66733 19365 44164.4 32965.9 7421.74 3655.03 12169 7195.94 33767.2 20076.5 5245.43 12889.3 3766.71 38918.9 10288.5 1143.13 27309.2 6868.64 33848.8 5070.1 9788 961.363 2484.88 825.186 14754.3 1085.33 2511.9 5300.4 4247.6 2839.9 2948.34 1281.83 2084.26 2257.04 1539.36 6043.45 430.627 9437.2 280.265 4370.59 2623.42 6457.94 1614.8 1536.77 3984.76 1358.94 2771.9 9622.68 4707.72 3185.16 4914.96 1412.85 9156.93 864.073 5045.33 3266.66 1540.05 2061.47 530.736 7665.09 6520.32 3798.06 717.681 1475.7 2259.12 582.974 480.846 258.256 4742.67 4339.25 163.688 492.624 422.289 319.653 971.851 2405.53 870.071 1672.86 691.334 981.53 120.205 374.937 334.439 2722.27 1024.84 921.646 4269.72 1775.71 3145.01 2913.48 231.529 4626.86 1958.49 701.005 742.728 4149.98 704.395 80.862 102.128 2243.66 2536.85 782.229 1102.71 5393.36 4425.81 2040.45
internal_count=3709921 484370 3225551 172442 311928 3008480 127621 217071 145572 126848 185080 44821 101012 268748 26609 71499 2739732 63512 23816 28037 93244 2428885 310847 37500 15035 56226 17272 18023 54403 121756 33604 84502 117099 100578 15273 76831 85717 65085 75972 11390 12951 557 50521 29564 16784 29537 26589 256444 25459 62641 22500 13126 24561 9374 44001 12394 23747 13969 4109 84242 3069 3645 33948 30443 22287 20632 21861 31479 9677 8504 8978 23531 13050 3866 12226 6621 6721 37514 151649 26689 25451 12587 12864 3520 6317 6238 8156 28954 50537 19384 8753 23446 20638 2808 12046 6252 37560 5168 12170 24352 1080 1173 142730 18386 31991 19217 15437 13503 19887
is_linear=0
shrinkage=0.053422


Tree=7
num_leaves=110
num_cat=0
split_feature=5 0 9 0 5 6 7 0 6 6 6 5 9 6 6 2 7 7 6 9 7 7 7 18 7 1 13 6 18 1 12 6 5 6 8 13 18 13 5 16 7 9 5 5 16 5 0 18 5 9 0 1 2 15 14 5 9 5 15 14 1 18 18 12 15 17 6 2 9 13 5 17 12 2 6 1 16 12 12 14 1 14 15 2 2 12 16 2 2 1 18 1 2 5 18 14 2 6 16 15 2 2 18 0 14 6 16 14 18
split_gain=97216.1 10570.5 3993.57 3703.17 1615.27 1098.04 908.488 574.016 547.773 397.693 361.728 322.245 286.087 274.605 253.619 244.368 263.64 241.165 220.462 161.14 157.109 150.706 142.957 141.748 136.115 135.599 133.104 122.169 119.043 118.476 116.171 114.052 112.758 108.342 105.844 103.668 164.555 100.383 96.6205 96.1602 89.2007 86.3465 84.3687 82.1422 135.338 82.045 81.2346 76.4768 75.8763 75.1691 73.5177 72.0593 71.1509 71.5938 70.1337 70.1297 68.8658 68.547 68.3849 67.3859 67.2147 68.4657 65.0679 62.1174 61.3165 96.3055 61.9406 58.7943 57.6964 55.761 62.6576 54.9377 66.1951 54.8477 53.8312 53.7849 53.4739 53.2321 52.9691 62.594 61.2506 50.6329 52.8428 50.3562 50.2769 50.0443 51.5744 49.7188 49.4011 48.2672 47.9202 47.717 47.6093 47.486 47.1363 46.8115 46.0378 57.4811 44.7629 44.5539 44.1575 43.8935 43.6135 43.2516 45.8534 42.3723 42.1235 42.0598 45.6539
threshold=3.5000000000000004 8.5000000000000018 6.5000000000000009 10.500000000000002 16.500000000000004 38.500000000000007 6.119705175269786 1.5000000000000002 6.5000000000000009 5.5000000000000009 30.500000000000004 162.50000000000003 12.500000000000002 7.5000000000000009 1.5000000000000002 0.66847385793418612 6.3167663659502393 8.324953970823211 4.5000000000000009 4.5000000000000009 5.5491514688124992 6.6156459242430321 9.1371974824935975 0.84216632067407504 10.295334241749247 2.9376132797689642e-05 631.50000000000011 26.500000000000004 0.84855435084792896 0.00016193662236975261 11.814544761623649 17.500000000000004 249.50000000000003 10.500000000000002 11.803605000302884 54.500000000000007 0.84315953654188958 1795.5000000000002 7.5000000000000009 71.417225558982707 6.6895209700280631 3.5000000000000004 25.500000000000004 23.500000000000004 73.874665206424723 235.50000000000003 1.5000000000000002 0.95807857064401569 9.5000000000000018 28.500000000000004 1.5000000000000002 0.00017449359496787243 0.9065643906212234 0.9289915966386556 43.500000000000007 58.500000000000007 4.5000000000000009 9.5000000000000018 0.8785831285831287 68.500000000000014 0.0001651103017858707 0.94127500246329698 0.79792606920266507 13.171626693630261 0.86023255813953503 15.808938328625972 47.500000000000007 0.70267756977897056 16.500000000000004 133.00000000000003 28.500000000000004 14.974020608465187 11.078348705098124 0.90924240180732629 7.5000000000000009 0.00014508336943493488 8.5106519752667307 9.4882602257306754 12.290455777387676 665.50000000000011 0.0019737192473529802 31.500000000000004 0.91341829085457293 0.59015736649272488 0.80348796409990397 8.2863954132321513 37.349849596936643 0.83594288628372693 0.81427864346584355 4.1888751675931584e-05 0.80311089619600262 1.5205894754515545e-05 0.84961495688526256 1.5000000000000002 0.78966437833714731 24.500000000000004 0.87582263861953191 176.50000000000003 31.312045564973129 0.92177722152690877 0.61667273309595994 0.90924240180732629 0.95662625418060221 67.500000000000014 43.500000000000007 32.500000000000007 99.361135937257202 89.500000000000014 0.88575837742504426
decision_type=2 2 2 2 2 2 2 2 2 2 2 2 2 2 2 2 2 2 2 2 2 2 2 2 2 2 2 2 2 2 2 2 2 2 2 2 2 2 2 2 2 2 2 2 2 2 2 2 2 2 2 2 2 2 2 2 2 2 2 2 2 2 2 2 2 2 2 2 2 2 2 2 2 2 2 2 2 2 2 2 2 2 2 2 2 2 2 2 2 2 2 2 2 2 2 2 2 2 2 2 2 2 2 2 2 2 2 2 2
left_child=3 2 5 8 9 13 18 12 17 20 40 42 45 24 -8 26 62 -1 19 102 84 28 38 31 57 -24 27 107 -11 98 49 -20 48 56 -19 89 77 63 81 47 51 -39 64 44 -27 91 -36 78 -9 85 -38 -6 55 73 -30 88 93 106 92 -60 101 103 -17 -13 -7 66 -66 -33 90 70 75 -44 -73 -54 -53 -42 -31 -37 80 -80 -23 -15 -83 -40 -3 -14 -87 -47 -12 -18 -50 -4 -35 -16 -41 -86 -57 -98 -26 100 -76 -22 -5 104 -62 -56 -2 -10 -109
right_child=1 4 7 6 10 11 14 32 15 21 52 37 30 22 33 16 35 34 23 -21 60 39 25 -25 29 43 -28 -29 54 76 -32 67 -34 58 46 36 50 41 83 94 69 -43 71 -45 -46 87 -48 -49 68 -51 -52 74 53 -55 105 96 -58 -59 59 -61 61 -63 -64 -65 65 -67 -68 -69 -70 -71 -72 72 -74 -75 99 -77 -78 -79 79 -81 -82 82 -84 -85 95 86 -88 -89 -90 -91 -92 -93 -94 -95 -96 -97 97 -99 -100 -101 -102 -103 -104 -105 -106 -107 -108 108 -110
leaf_value=-0.056360807433175002 -0.04167291055469198 -0.059666545478385492 0.062888520198060807 -0.069712965445737324 -0.045523066431617645 0.033110450863600996 -0.06132746741182956 0.019015520030909956 0.017565388834163701 -0.0047857102040947692 0.012609343374953235 0.05077344180800504 0.03825638249331989 0.024883782401877556 -0.052719127482311945 0.018927800764807611 0.051154414894062132 -0.041017956444873313 -0.050201336102938823 -0.038213090347428286 -0.01451404046490328 -0.013450605978091872 0.051979933425515885 -0.063566693543646205 -0.0043776417983063106 0.011785007748095915 -0.080038294013712985 0.039236943780267021 -0.017762811680200233 -0.073375057971242386 0.066516641491832562 0.0083271015104770339 0.056447130136736592 -0.0012827927550849501 0.0094076507340867463 -0.076836591773920854 -0.0065598729793260755 -0.016129547693058879 -0.022378621412817122 -0.089755162955078488 0.017820677482555447 0.044282024354880899 0.027086675466742479 0.028371110976893939 0.032367744847641197 0.064117167834865846 -0.023692163391089031 -0.037685103965063207 -0.0016878273889792711 0.063506782702789352 -0.052502831610936732 -0.030853889297241678 -0.029352157774691721 -0.046066834818305327 -0.052055625561260893 0.035456609168227106 -0.0060095343516112336 0.00042174180865435523 -0.0053151969174441262 -0.056280687261974854 0.0010854378368810058 -0.052222859889432184 -0.050745114315505983 0.066560177258548112 0.012385224660113839 0.019399966389122236 -0.078211239574610347 -0.050645263955722469 0.049329444795478447 -0.0046784882186916921 0.019924573817715174 0.034349445394750856 0.045389740745585987 0.02714369888608123 -0.057366635243570115 -0.0021219944569169286 0.0021592199706319884 0.022257390155256979 0.017675433271728005 -0.082330096461416938 0.015240016985923905 -0.0097590393417671204 -0.060878350577765958 0.017050972866289971 0.00037445860976904183 0.051676822068793885 0.060648907533140319 0.040979371833446535 0.031573640442938956 0.0084932791193666531 0.03917211412776387 0.046561251342438485 -0.071175650018786438 -0.036675491335399352 0.0085801376739664953 -0.047405547666784523 -0.027734816936388046 0.061955729788578807 0.035098390990950655 -0.021034303086336487 0.010005307226429507 0.046230357109849796 -0.073680439303863296 -0.033012890322483279 -0.032420663588251422 -0.017752172473614318 -0.00035147952872831674 0.0011396219091627346 -0.044960102700324467
leaf_weight=1122.7266714648576 300.00996866310015 657.6095441156067 551.87250613793731 19969.671730857575 134.02622229862027 922.685006366577 1683.5715628290782 457.34093108959496 327.54038488469087 648.75862551433966 1126.0372506591957 2519.7556549692526 473.19784847414121 86.778122944524512 956.88760971307056 41.134897318435833 116.76370195392519 632.25838540110271 792.8074849996483 425.90343191835564 617.90069484186824 1882.2773050777614 507.29877599328756 2827.2989519920666 96.684310631128028 2930.7943252327386 40.947114476934075 461.678958223667 460.44377282948699 27.399824314750731 8206.5308148921467 172.72275382024236 1434.0556307700463 444.50231999193784 314.26256931805983 16.33532542642206 163.76934274809901 104.91018847445957 95.661610994953662 14.059088628040625 578.73856569314376 189.46507498342544 1394.966029192321 4824.2288980255835 1323.3827327450272 1576.8561825170182 647.80453882238362 256.59682041977067 83.260818755254149 4961.5645211879164 252.90781222179066 179.16944586415775 63.622608521021903 70.562349795829505 508.65682636131532 2020.8635833051521 146.37834298284724 355.33573339413851 116.72870616544969 202.4453188884072 278.22308406722732 354.38434865756426 546.27001471916446 991.12188890390098 37.436162101104856 725.02520457119681 50.713458256330341 66.949506024597213 1935.8004769333638 794.23917617276311 1331.0986859244294 3863.5196158932522 2588.1987805794924 213.99122010916471 28.917736870003864 1158.6283795100171 1124.7261266512796 292.41319905070122 329.67983525426826 18.884998484514654 239.36467525409535 266.37295639561489 73.672196553554386 2742.9476933605038 85.527321293950081 3640.8917990345508 3673.1370440041646 318.59464176930487 601.37910344079137 215.15555680869147 5068.5649761979003 6871.1271651382558 29.670870703179389 1170.5916990359547 1326.3585492851562 185.31823301466648 70.557032181648538 28.68251406121999 538.91222459916025 202.31826676183846 696.0953369345516 35.922862744890153 13091.104958779644 853.37449397245655 200.61223687278107 128.78407691093162 91.996670382795855 281.91784415510483 78.346775362966582
leaf_count=61725 6835 36456 499 1557476 2945 3568 115009 3229 5118 13632 9826 3955 814 668 53695 536 552 24813 44376 21306 16324 38963 1221 187844 1062 24345 1899 1783 11622 788 6473 2964 1959 10327 4652 650 2407 470 917 383 5746 367 4541 19179 6732 1544 21594 7611 686 3999 9453 5734 789 1172 19646 8992 5238 3181 3499 10920 6540 15306 25429 919 286 3582 759 3319 4470 12151 12747 10300 5170 1433 665 18206 14625 2778 5349 1153 3767 3355 1202 13513 2598 5001 3576 458 4083 3525 16582 12267 1682 54702 19966 9038 851 84 2855 4228 9150 361 918613 30956 7264 2873 1112 3776 2587
internal_value=0 0.0337827 0.0434954 -0.0612622 -0.0021622 0.0283774 -0.0666708 0.0545776 -0.0202539 -0.0181857 0.0134888 0.0395651 0.0580959 0.0186428 -0.0446671 -0.00382739 -0.0171704 -0.0373946 -0.0694699 -0.0708634 -0.0330937 -0.00980364 0.0218126 -0.0573801 0.0025739 0.0251012 0.0146079 0.0179794 -0.0229287 0.0105776 0.061559 -0.0404389 0.0427154 -0.0355223 -0.0240386 -0.00122867 -0.0125436 0.0527176 0.0121589 -0.00416718 0.00393504 0.0227524 0.0343422 0.0235992 0.0181879 0.0503082 -0.01288 -0.00992638 0.0401055 0.0583677 -0.0344456 -0.00852803 0.025109 0.0019831 -0.0336496 0.0272018 -0.0414529 -0.0165717 -0.0185244 -0.0376415 -0.0257171 -0.0313539 -0.045866 0.05523 0.0236847 0.0129895 -0.0397359 -0.00814611 0.0414663 0.00793761 0.0112032 0.0366999 0.0387784 0.0141962 -0.00404696 0.00452116 0.000362866 0.0170145 -0.0070429 0.0122572 -0.0102137 -0.0115392 -0.0208343 0.0157222 -0.0516884 0.0550933 0.0561826 0.0602281 0.0192115 0.0235008 0.0385118 0.0477751 -0.00565626 -0.0438915 0.00754874 -0.0323176 0.0337121 -0.00181218 0.0290935 0.0011324 0.00731812 -0.0111766 -0.071284 -0.0258025 -0.0129522 -0.0451252 -0.0319755 0.00371061 -0.00888569
internal_weight=0 86408.5 68026.8 47649.5 18381.7 28774 42097.2 39252.8 5552.23 9082.74 9298.93 13387.8 30273.8 15386.2 4750.78 2835.18 1644.75 2717.05 37346.5 33486.7 3268.87 5813.86 12851.1 3859.78 2535.06 9585.7 1190.43 1149.48 1746.64 1787.72 20955.3 1032.48 8979.02 3067.2 1594.33 1057.34 725.426 3805.25 3265.43 4067.22 5103.23 294.375 9582.54 9078.41 4254.18 9318.45 962.067 2726.8 7544.97 12748.8 416.677 1240.53 4195.7 348.176 1097.88 3847.52 2273.86 747.342 793.347 319.174 2340.42 1686.59 587.405 3510.88 1735.86 813.175 88.1496 239.672 7087.63 3862.7 3068.47 7846.68 6451.72 277.614 1106.5 1737.37 1152.13 308.749 2470.21 348.565 2121.64 426.823 340.045 2838.61 928.455 7787.23 7314.03 1895.45 1727.42 331.919 5151.83 7423 474.173 2127.48 1340.42 270.846 2120.1 99.2395 635.597 927.331 725.013 653.824 33060.8 1332.21 478.835 637.441 392.007 687.805 360.265
internal_count=3709921 545674 197064 3164247 348610 135507 2990970 61557 173277 249808 98802 33917 34631 101590 255072 60493 45330 112784 2735898 2497395 124843 124965 71132 238503 30458 51477 15163 13264 47773 19330 19863 50659 26926 140063 51059 19365 15288 5711 19655 77192 71572 837 28206 50256 31077 14768 26246 56843 24967 13390 11860 22722 27230 3394 34141 23836 113635 11128 26428 14419 76751 60066 25965 4874 8195 4627 1045 6283 21738 48850 36699 20011 15470 2222 19777 23952 15413 3428 49232 6502 42730 5225 4557 14430 48092 9391 8577 2002 13909 4077 17268 12766 12009 108397 20349 11636 9927 935 3917 14043 9815 16685 2476089 44760 13804 22519 7947 11481 6363
is_linear=0
shrinkage=0.053422


Tree=8
num_leaves=110
num_cat=0
split_feature=5 0 0 6 9 7 6 0 5 0 6 6 6 5 9 9 9 6 6 2 5 18 18 9 0 7 16 5 5 18 7 6 5 14 13 6 7 9 2 13 1 1 6 12 1 5 14 17 12 7 9 6 14 4 7 15 0 1 14 14 15 14 5 2 16 14 12 16 6 7 7 15 2 1 16 5 15 17 1 16 2 17 15 7 16 17 1 2 5 18 0 12 6 14 5 2 17 9 15 17 1 6 16 2 1 1 6 8 7
split_gain=87750.9 8723.21 4567.4 2481.88 2202.19 988.84 662.887 568.194 544.825 479.306 408.278 303.603 256.732 223.204 222.351 221.415 220.674 215.298 203.036 189.781 167.774 144.358 138.714 129.548 118.882 118.547 117.626 105.594 101.751 99.9384 99.8571 98.851 95.747 133.378 95.422 94.3039 93.2141 84.8355 81.7255 79.3944 78.9037 78.8116 78.5543 77.6364 77.0597 75.6763 80.409 72.3061 72.7229 75.103 71.016 70.4304 70.157 69.3767 68.4225 61.9764 59.9954 59.9193 58.4828 55.996 55.5118 57.3033 55.1677 54.9711 57.6958 67.2124 61.8296 54.2912 63.892 53.9278 53.4164 52.8772 52.3397 51.9112 50.8367 50.3458 71.8182 50.3413 104.956 57.1823 50.0694 49.8037 51.9684 49.3069 48.7661 48.3978 48.2663 48.4121 47.9064 47.8013 46.6712 46.4579 46.0392 46.0047 45.5891 44.9762 44.7023 44.6619 53.7897 58.2864 44.5875 43.8158 43.3423 42.7879 42.7665 50.0266 42.5122 42.319 40.9428
